{"learner":{"attributes":{"best_iteration":"9","best_score":"0.11421578201163356","scikit_learn":"{\"_estimator_type\": \"regressor\"}"},"feature_names":[],"feature_types":[],"gradient_booster":{"model":{"cats":{"enc":[],"feature_segments":[],"sorted_idx":[]},"gbtree_model_param":{"num_parallel_tree":"1","num_trees":"20"},"iteration_indptr":[0,1,2,3,4,5,6,7,8,9,10,11,12,13,14,15,16,17,18,19,20],"tree_info":[0,0,0,0,0,0,0,0,0,0,0,0,0,0,0,0,0,0,0,0],"trees":[{"base_weights":[-6.2736934E-3,-2.8089264E-1,3.649128E-2,-3.4722406E-2,-1.5387027E-1,2.527063E-2,1.7422235E-1,-7.9215206E-2,-2.273853E-2,8.062087E-2,-1.4111205E-3,2.0025594E-2,8.510798E-3,-2.1810532E-2,-1.2934971E-2,-6.989288E-3,1.2630722E-1,-6.6087276E-2,2.4690736E-2,-8.528169E-2,8.430148E-3,-2.8915435E-2,1.581052E-2,1.0476861E-2,1.5774348E-1,-1.3343434E-1,-3.7796926E-2,1.194288E-2,1.2314633E-1,-2.9895306E-4,-1.24933E-2,-4.7151614E-3,1.1086464E-4,2.8327645E-3,2.634716E-4,4.489541E-3,1.6623756E-2,2.1391949E-3,-1.9964326E-2,7.1265935E-3,-6.2700333E-3,4.416259E-3,-1.1851542E-3,1.4078908E-2,8.6449384E-4],"categories":[],"categories_nodes":[],"categories_segments":[],"categories_sizes":[],"default_left":[0,0,0,0,0,0,0,0,0,0,0,0,0,0,0,0,0,0,0,0,0,0,0,0,0,0,0,0,0,0,0,0,0,0,0,0,0,0,0,0,0,0,0,0,0],"id":0,"left_children":[1,3,5,-1,7,9,11,13,-1,15,17,-1,-1,19,-1,21,23,25,27,29,-1,31,33,-1,35,37,39,41,43,-1,-1,-1,-1,-1,-1,-1,-1,-1,-1,-1,-1,-1,-1,-1,-1],"loss_changes":[1.8305813E0,1.23509526E-1,2.0423064E-1,0E0,3.1382054E-2,1.8619575E-1,6.1562657E-3,1.4446542E-2,0E0,1.6498893E-1,1.4681418E-1,0E0,0E0,3.4129582E-2,0E0,7.955847E-3,1.7549396E-3,4.2588398E-2,7.634534E-2,9.415485E-3,0E0,4.4324696E-3,1.2447499E-3,0E0,1.1635721E-3,7.602692E-2,5.6073096E-2,4.3455765E-2,1.29237175E-2,0E0,0E0,0E0,0E0,0E0,0E0,0E0,0E0,0E0,0E0,0E0,0E0,0E0,0E0,0E0,0E0],"parents":[2147483647,0,0,1,1,2,2,4,4,5,5,6,6,7,7,9,9,10,10,13,13,15,15,16,16,17,17,18,18,19,19,21,21,22,22,24,24,25,25,26,26,27,27,28,28],"right_children":[2,4,6,-1,8,10,12,14,-1,16,18,-1,-1,20,-1,22,24,26,28,30,-1,32,34,-1,36,38,40,42,44,-1,-1,-1,-1,-1,-1,-1,-1,-1,-1,-1,-1,-1,-1,-1,-1],"split_conditions":[5.359713E2,5.357731E2,3.651526E0,-3.4722406E-2,3.516972E0,3.503053E0,3.684005E0,5.358425E2,-2.273853E-2,3.405617E0,5.368345E2,2.0025594E-2,8.510798E-3,5.358292E2,-1.2934971E-2,3.387058E0,3.493773E0,5.363391E2,5.3897E2,5.358052E2,8.430148E-3,5.382261E2,5.372603E2,1.0476861E-2,5.359916E2,5.360452E2,5.364474E2,3.530891E0,5.398557E2,-2.9895306E-4,-1.24933E-2,-4.7151614E-3,1.1086464E-4,2.8327645E-3,2.634716E-4,4.489541E-3,1.6623756E-2,2.1391949E-3,-1.9964326E-2,7.1265935E-3,-6.2700333E-3,4.416259E-3,-1.1851542E-3,1.4078908E-2,8.6449384E-4],"split_indices":[0,0,1,0,1,1,1,0,0,1,0,0,0,0,0,1,1,0,0,0,0,0,0,0,0,0,0,1,0,0,0,0,0,0,0,0,0,0,0,0,0,0,0,0,0],"split_type":[0,0,0,0,0,0,0,0,0,0,0,0,0,0,0,0,0,0,0,0,0,0,0,0,0,0,0,0,0,0,0,0,0,0,0,0,0,0,0,0,0,0,0,0,0],"sum_hessian":[1.54E2,2E1,1.34E2,1.2E1,8E0,1.25E2,9E0,5E0,3E0,4E1,8.5E1,6E0,3E0,3E0,2E0,1.4E1,2.6E1,2.4E1,6.1E1,2E0,1E0,7E0,7E0,1.8E1,8E0,6E0,1.8E1,5.5E1,6E0,1E0,1E0,4E0,3E0,3E0,4E0,1E0,7E0,2E0,4E0,3E0,1.5E1,2.3E1,3.2E1,5E0,1E0],"tree_param":{"num_deleted":"0","num_feature":"3","num_nodes":"45","size_leaf_vector":"1"}},{"base_weights":[9.843936E-3,-2.6810136E-1,2.9348226E-2,-3.0426979E-2,-8.2285166E-2,1.962667E-2,1.2430624E-1,-1.4771736E-2,2.4289608E-3,5.632037E-2,3.281892E-3,1.3329632E-2,8.212686E-4,-1.2332386E-2,1.075999E-1,-1.1056624E-2,7.666748E-2,-4.208633E-2,6.051779E-3,6.574043E-2,1.5544316E-1,7.766457E-3,-6.892532E-2,4.8995193E-2,1.2221303E-2,-5.6952047E-3,-3.281355E-4,2.6203156E-3,-3.5768087E-4,7.627071E-3,2.0347058E-3,4.2650583E-3,1.6323673E-2,-4.6484782E-3,3.271785E-3,-4.143906E-3,-1.0153905E-2,5.1112394E-3,1.3911605E-3],"categories":[],"categories_nodes":[],"categories_segments":[],"categories_sizes":[],"default_left":[0,0,0,0,0,0,0,0,0,0,0,0,0,0,0,0,0,0,0,0,0,0,0,0,0,0,0,0,0,0,0,0,0,0,0,0,0,0,0],"id":1,"left_children":[1,3,5,-1,7,9,11,-1,-1,13,15,-1,-1,17,19,21,23,25,27,29,31,33,35,37,-1,-1,-1,-1,-1,-1,-1,-1,-1,-1,-1,-1,-1,-1,-1],"loss_changes":[8.264583E-1,4.216987E-2,1.2864612E-1,0E0,2.4508258E-2,7.7782705E-2,1.24732405E-2,0E0,0E0,1.421462E-1,9.660157E-2,0E0,0E0,1.0100722E-2,3.5843074E-2,8.440888E-2,1.2917399E-2,3.851167E-3,2.422075E-3,5.140178E-3,1.8284172E-3,8.138588E-2,1.2824476E-2,1.0601245E-4,0E0,0E0,0E0,0E0,0E0,0E0,0E0,0E0,0E0,0E0,0E0,0E0,0E0,0E0,0E0],"parents":[2147483647,0,0,1,1,2,2,4,4,5,5,6,6,9,9,10,10,13,13,14,14,15,15,16,16,17,17,18,18,19,19,20,20,21,21,22,22,23,23],"right_children":[2,4,6,-1,8,10,12,-1,-1,14,16,-1,-1,18,20,22,24,26,28,30,32,34,36,38,-1,-1,-1,-1,-1,-1,-1,-1,-1,-1,-1,-1,-1,-1,-1],"split_conditions":[5.35541E2,3.516972E0,5.388043E2,-3.0426979E-2,5.35118E2,3.503053E0,5.398557E2,-1.4771736E-2,2.4289608E-3,3.405617E0,3.600489E0,1.3329632E-2,8.212686E-4,3.387058E0,3.493773E0,3.540171E0,3.646887E0,5.382261E2,5.372603E2,3.489133E0,5.359916E2,5.365766E2,5.374858E2,5.387434E2,1.2221303E-2,-5.6952047E-3,-3.281355E-4,2.6203156E-3,-3.5768087E-4,7.627071E-3,2.0347058E-3,4.2650583E-3,1.6323673E-2,-4.6484782E-3,3.271785E-3,-4.143906E-3,-1.0153905E-2,5.1112394E-3,1.3911605E-3],"split_indices":[0,1,0,0,0,1,0,0,0,1,1,0,0,1,1,1,1,0,0,1,0,0,0,0,0,0,0,0,0,0,0,0,0,0,0,0,0,0,0],"split_type":[0,0,0,0,0,0,0,0,0,0,0,0,0,0,0,0,0,0,0,0,0,0,0,0,0,0,0,0,0,0,0,0,0,0,0,0,0,0,0],"sum_hessian":[1.5E2,9E0,1.41E2,7E0,2E0,1.29E2,1.2E1,1E0,1E0,3.9E1,9E1,1.1E1,1E0,1.7E1,2.2E1,7.6E1,1.4E1,6E0,1.1E1,1.3E1,9E0,5.8E1,1.8E1,1E1,4E0,4E0,2E0,3E0,8E0,1E1,3E0,1E0,8E0,1.8E1,4E1,1.1E1,7E0,9E0,1E0],"tree_param":{"num_deleted":"0","num_feature":"3","num_nodes":"39","size_leaf_vector":"1"}},{"base_weights":[-2.3186032E-3,-2.5838956E-1,2.4371555E-2,-2.8010234E-2,-7.817093E-2,1.2875883E-2,1.0412594E-1,-1.4033151E-2,2.3075105E-3,5.8705844E-2,-5.899771E-3,5.8557034E-2,1.2780096E-1,-1.344922E-2,1.14321575E-1,-8.502575E-2,1.0835958E-2,6.4693177E-3,7.80201E-4,1.5762044E-2,7.668134E-2,-2.3386776E-2,8.667429E-3,1.2443265E-1,4.0241303E-3,6.0228467E-2,-1.23178914E-1,-1.5958969E-3,7.727218E-2,1.1732578E-3,8.732458E-3,-4.1779955E-3,-4.2802267E-4,-2.1429062E-4,2.0192068E-3,7.941696E-3,1.4585929E-2,-5.158186E-5,8.06485E-3,-1.4210018E-2,5.193818E-3,1.1812289E-3,-6.179975E-3,1.0014248E-2,6.495953E-4],"categories":[],"categories_nodes":[],"categories_segments":[],"categories_sizes":[],"default_left":[0,0,0,0,0,0,0,0,0,0,0,0,0,0,0,0,0,0,0,0,0,0,0,0,0,0,0,0,0,0,0,0,0,0,0,0,0,0,0,0,0,0,0,0,0],"id":2,"left_children":[1,3,5,-1,7,9,11,-1,-1,13,15,17,19,21,23,25,27,-1,-1,-1,29,31,33,35,-1,37,39,41,43,-1,-1,-1,-1,-1,-1,-1,-1,-1,-1,-1,-1,-1,-1,-1,-1],"loss_changes":[1.0861602E0,3.6799908E-2,1.3068284E-1,0E0,2.2118697E-2,1.09628275E-1,1.1935577E-2,0E0,0E0,1.5001692E-1,1.2142635E-1,1.9867849E-3,4.6814084E-3,3.9390563E-3,1.0722309E-2,9.60894E-2,6.2893644E-2,0E0,0E0,0E0,3.1230487E-3,4.0383344E-3,7.907809E-4,5.7779253E-3,0E0,5.0032036E-3,5.0455123E-2,5.3199586E-2,1.877357E-2,0E0,0E0,0E0,0E0,0E0,0E0,0E0,0E0,0E0,0E0,0E0,0E0,0E0,0E0,0E0,0E0],"parents":[2147483647,0,0,1,1,2,2,4,4,5,5,6,6,9,9,10,10,11,11,12,12,13,13,14,14,15,15,16,16,20,20,21,21,22,22,23,23,25,25,26,26,27,27,28,28],"right_children":[2,4,6,-1,8,10,12,-1,-1,14,16,18,20,22,24,26,28,-1,-1,-1,30,32,34,36,-1,38,40,42,44,-1,-1,-1,-1,-1,-1,-1,-1,-1,-1,-1,-1,-1,-1,-1,-1],"split_conditions":[5.357731E2,3.516972E0,3.632967E0,-2.8010234E-2,5.35118E2,3.503053E0,3.651526E0,-1.4033151E-2,2.3075105E-3,3.405617E0,5.363386E2,5.398557E2,3.674726E0,5.382261E2,5.382405E2,5.358257E2,5.383212E2,6.4693177E-3,7.80201E-4,1.5762044E-2,3.679365E0,3.396337E0,3.349939E0,5.368119E2,4.0241303E-3,5.358052E2,3.530891E0,3.544811E0,3.609768E0,1.1732578E-3,8.732458E-3,-4.1779955E-3,-4.2802267E-4,-2.1429062E-4,2.0192068E-3,7.941696E-3,1.4585929E-2,-5.158186E-5,8.06485E-3,-1.4210018E-2,5.193818E-3,1.1812289E-3,-6.179975E-3,1.0014248E-2,6.495953E-4],"split_indices":[0,1,1,0,0,1,1,0,0,1,0,0,1,0,0,0,0,0,0,0,1,1,1,0,0,0,1,1,1,0,0,0,0,0,0,0,0,0,0,0,0,0,0,0,0],"split_type":[0,0,0,0,0,0,0,0,0,0,0,0,0,0,0,0,0,0,0,0,0,0,0,0,0,0,0,0,0,0,0,0,0,0,0,0,0,0,0,0,0,0,0,0,0],"sum_hessian":[1.57E2,1.4E1,1.43E2,1.2E1,2E0,1.26E2,1.7E1,1E0,1E0,3.6E1,9E1,7E0,1E1,1.6E1,2E1,1.5E1,7.5E1,6E0,1E0,5E0,5E0,1.1E1,5E0,1.7E1,3E0,3E0,1.2E1,6.4E1,1.1E1,1E0,4E0,5E0,6E0,3E0,2E0,7E0,1E1,1E0,2E0,1.1E1,1E0,5.3E1,1.1E1,8E0,3E0],"tree_param":{"num_deleted":"0","num_feature":"3","num_nodes":"45","size_leaf_vector":"1"}},{"base_weights":[6.9607804E-3,-2.4434654E-1,2.8550413E-2,-2.6851982E-2,-7.426238E-2,-2.3225838E-2,4.8059978E-2,-1.3331497E-2,2.1921396E-3,8.7880515E-2,-5.6190617E-2,3.7553933E-2,1.3072984E-1,1.07933946E-1,-4.6300176E-3,-8.4245466E-2,7.577766E-3,2.9490318E-2,1.0637109E-1,1.3661037E-2,3.3021928E-3,1.1589182E-2,2.2135496E-3,4.1989326E-2,-9.8267324E-2,6.1990183E-2,-4.809761E-2,9.761941E-2,1.9753939E-2,1.2312412E-2,2.6239315E-2,-4.900694E-5,6.347406E-3,-1.47378845E-2,-4.0222406E-3,7.911835E-3,-1.1825323E-3,-7.7977516E-3,5.0650956E-3,1.1608903E-2,-4.353845E-3,-5.637625E-3,2.66885E-3,3.1947016E-3,7.411957E-4],"categories":[],"categories_nodes":[],"categories_segments":[],"categories_sizes":[],"default_left":[0,0,0,0,0,0,0,0,0,0,0,0,0,0,0,0,0,0,0,0,0,0,0,0,0,0,0,0,0,0,0,0,0,0,0,0,0,0,0,0,0,0,0,0,0],"id":3,"left_children":[1,3,5,-1,7,9,11,-1,-1,13,15,17,19,21,-1,23,25,27,29,-1,-1,-1,-1,31,33,35,37,39,41,-1,43,-1,-1,-1,-1,-1,-1,-1,-1,-1,-1,-1,-1,-1,-1],"loss_changes":[8.913543E-1,3.350854E-2,1.5364617E-1,0E0,1.9962154E-2,1.5876712E-1,9.062922E-2,0E0,0E0,3.1905197E-2,5.9675805E-2,5.1799685E-2,2.3837686E-3,3.5796314E-3,0E0,4.4837236E-2,3.6305327E-2,5.7771385E-2,1.0193802E-2,0E0,0E0,0E0,0E0,2.7690828E-3,5.39362E-2,8.521544E-3,2.165322E-2,3.373281E-2,4.3738946E-2,0E0,8.5592736E-5,0E0,0E0,0E0,0E0,0E0,0E0,0E0,0E0,0E0,0E0,0E0,0E0,0E0,0E0],"parents":[2147483647,0,0,1,1,2,2,4,4,5,5,6,6,9,9,10,10,11,11,12,12,13,13,15,15,16,16,17,17,18,18,23,23,24,24,25,25,26,26,27,27,28,28,30,30],"right_children":[2,4,6,-1,8,10,12,-1,-1,14,16,18,20,22,-1,24,26,28,30,-1,-1,-1,-1,32,34,36,38,40,42,-1,44,-1,-1,-1,-1,-1,-1,-1,-1,-1,-1,-1,-1,-1,-1],"split_conditions":[5.357731E2,3.516972E0,5.368469E2,-2.6851982E-2,5.35118E2,3.507692E0,3.651526E0,-1.3331497E-2,2.1921396E-3,5.365237E2,3.530891E0,5.388043E2,5.392559E2,5.365221E2,-4.6300176E-3,5.358257E2,5.366762E2,5.370316E2,5.395453E2,1.3661037E-2,3.3021928E-3,1.1589182E-2,2.2135496E-3,5.358052E2,5.363391E2,3.540171E0,5.367972E2,3.549451E0,5.370782E2,1.2312412E-2,5.398557E2,-4.900694E-5,6.347406E-3,-1.47378845E-2,-4.0222406E-3,7.911835E-3,-1.1825323E-3,-7.7977516E-3,5.0650956E-3,1.1608903E-2,-4.353845E-3,-5.637625E-3,2.66885E-3,3.1947016E-3,7.411957E-4],"split_indices":[0,1,0,0,0,1,1,0,0,0,1,0,0,0,0,0,0,0,0,0,0,0,0,0,0,1,0,1,0,0,0,0,0,0,0,0,0,0,0,0,0,0,0,0,0],"split_type":[0,0,0,0,0,0,0,0,0,0,0,0,0,0,0,0,0,0,0,0,0,0,0,0,0,0,0,0,0,0,0,0,0,0,0,0,0,0,0,0,0,0,0,0,0],"sum_hessian":[1.62E2,1.2E1,1.5E2,1E1,2E0,4.1E1,1.09E2,1E0,1E0,9E0,3.2E1,9.8E1,1.1E1,8E0,1E0,2.2E1,1E1,8.9E1,9E0,1E1,1E0,7E0,1E0,2E0,2E1,5E0,5E0,1E1,7.9E1,7E0,2E0,1E0,1E0,1E1,1E1,4E0,1E0,4E0,1E0,9E0,1E0,6E0,7.3E1,1E0,1E0],"tree_param":{"num_deleted":"0","num_feature":"3","num_nodes":"45","size_leaf_vector":"1"}},{"base_weights":[2.8041457E-3,-1.2380936E-1,2.9585076E-2,3.1508263E-2,-2.3529876E-2,-1.2087178E-2,6.126136E-2,6.2847525E-2,-9.390513E-3,-4.4013645E-2,7.55482E-3,5.3886667E-2,1.01281166E-1,4.131794E-3,8.434946E-3,3.4561306E-2,-8.055027E-2,2.4327615E-2,-1.978531E-2,6.9401614E-2,3.5328336E-2,1.2207115E-2,3.4380913E-2,2.0825267E-3,-8.374453E-3,5.6586983E-3,1.0028506E-2,-5.99753E-2,-1.04846E-2,6.0906243E-2,-1.6799768E-3,-4.2126376E-2,5.2184224E-2,8.278782E-2,3.9350033E-2,-3.1845332E-3,4.990335E-2,4.1146995E-3,7.0413353E-4,-1.2096167E-3,-4.6551228E-5,-6.5488815E-3,4.528004E-3,-1.0481715E-2,-1.9377504E-3,1.3607264E-3,1.0548377E-2,1.245763E-3,-3.244672E-3,-7.192035E-3,-1.823935E-3,9.26892E-3,-3.4665347E-3,5.3984346E-3,9.147253E-3,-4.14509E-3,5.7809376E-3,-1.841135E-3,1.0035237E-3,5.5253627E-3,-5.966425E-4],"categories":[],"categories_nodes":[],"categories_segments":[],"categories_sizes":[],"default_left":[0,0,0,0,0,0,0,0,0,0,0,0,0,0,0,0,0,0,0,0,0,0,0,0,0,0,0,0,0,0,0,0,0,0,0,0,0,0,0,0,0,0,0,0,0,0,0,0,0,0,0,0,0,0,0,0,0,0,0,0,0],"id":4,"left_children":[1,3,5,7,-1,9,11,13,-1,15,17,19,21,23,-1,25,27,29,31,33,35,-1,37,-1,39,-1,41,43,-1,45,47,49,51,53,55,57,59,-1,-1,-1,-1,-1,-1,-1,-1,-1,-1,-1,-1,-1,-1,-1,-1,-1,-1,-1,-1,-1,-1,-1,-1],"loss_changes":[5.6314945E-1,5.095856E-1,1.8158351E-1,5.6996435E-2,0E0,3.795849E-2,1.7562747E-2,1.3539005E-2,0E0,6.881377E-2,1.7907003E-2,1.7127499E-2,1.110249E-2,1.0094909E-3,0E0,3.7553292E-3,1.7099679E-3,2.293405E-2,2.6316475E-2,1.122427E-2,1.8682666E-2,0E0,4.5019714E-4,0E0,8.267355E-5,0E0,1.6275844E-2,1.7994191E-2,0E0,1.9649372E-2,6.928731E-3,7.2284937E-3,1.728446E-2,1.0655075E-3,2.1786164E-2,2.1977127E-3,7.5037144E-3,0E0,0E0,0E0,0E0,0E0,0E0,0E0,0E0,0E0,0E0,0E0,0E0,0E0,0E0,0E0,0E0,0E0,0E0,0E0,0E0,0E0,0E0,0E0,0E0],"parents":[2147483647,0,0,1,1,2,2,3,3,5,5,6,6,7,7,9,9,10,10,11,11,12,12,13,13,15,15,16,16,17,17,18,18,19,19,20,20,22,22,24,24,26,26,27,27,29,29,30,30,31,31,32,32,33,33,34,34,35,35,36,36],"right_children":[2,4,6,8,-1,10,12,14,-1,16,18,20,22,24,-1,26,28,30,32,34,36,-1,38,-1,40,-1,42,44,-1,46,48,50,52,54,56,58,60,-1,-1,-1,-1,-1,-1,-1,-1,-1,-1,-1,-1,-1,-1,-1,-1,-1,-1,-1,-1,-1,-1,-1,-1],"split_conditions":[5.363391E2,1.975775E1,1.978535E1,5.361788E2,-2.3529876E-2,1.973016E1,5.389324E2,5.358052E2,-9.390513E-3,5.367383E2,1.975775E1,2.017167E1,5.395453E2,5.352153E2,8.434946E-3,5.365237E2,5.372446E2,5.370316E2,5.375721E2,5.380059E2,5.374786E2,1.2207115E-2,5.398557E2,2.0825267E-3,5.355919E2,5.6586983E-3,5.365496E2,5.368992E2,-1.04846E-2,5.368111E2,5.382405E2,5.368469E2,5.376394E2,5.371036E2,5.380554E2,2.019927E1,5.387688E2,4.1146995E-3,7.0413353E-4,-1.2096167E-3,-4.6551228E-5,-6.5488815E-3,4.528004E-3,-1.0481715E-2,-1.9377504E-3,1.3607264E-3,1.0548377E-2,1.245763E-3,-3.244672E-3,-7.192035E-3,-1.823935E-3,9.26892E-3,-3.4665347E-3,5.3984346E-3,9.147253E-3,-4.14509E-3,5.7809376E-3,-1.841135E-3,1.0035237E-3,5.5253627E-3,-5.966425E-4],"split_indices":[0,2,2,0,0,2,0,0,0,0,2,2,0,0,0,0,0,0,0,0,0,0,0,0,0,0,0,0,0,0,0,0,0,0,0,2,0,0,0,0,0,0,0,0,0,0,0,0,0,0,0,0,0,0,0,0,0,0,0,0,0],"split_type":[0,0,0,0,0,0,0,0,0,0,0,0,0,0,0,0,0,0,0,0,0,0,0,0,0,0,0,0,0,0,0,0,0,0,0,0,0,0,0,0,0,0,0,0,0,0,0,0,0,0,0,0,0,0,0,0,0,0,0,0,0],"sum_hessian":[1.64E2,2.8E1,1.36E2,1.2E1,1.6E1,5.9E1,7.7E1,1E1,2E0,2.2E1,3.7E1,6.7E1,1E1,3E0,7E0,7E0,1.5E1,2.3E1,1.4E1,3.5E1,3.2E1,7E0,3E0,1E0,2E0,3E0,4E0,1E1,5E0,9E0,1.4E1,1.1E1,3E0,2.3E1,1.2E1,9E0,2.3E1,2E0,1E0,1E0,1E0,1E0,3E0,4E0,6E0,5E0,4E0,1E1,4E0,4E0,7E0,2E0,1E0,7E0,1.6E1,2E0,1E1,4E0,5E0,2.1E1,2E0],"tree_param":{"num_deleted":"0","num_feature":"3","num_nodes":"61","size_leaf_vector":"1"}},{"base_weights":[-7.2868625E-3,-1.466643E-1,1.54804755E-2,-1.8414542E-1,-8.3272435E-2,-3.5101596E-2,3.0266795E-2,-2.0033542E-2,-6.340027E-2,6.3669765E-3,-1.279667E-1,6.5289155E-2,-6.180694E-2,2.1699129E-2,1.09489724E-1,-1.1488438E-2,1.9783974E-3,-7.0757195E-2,-1.6748691E-2,8.96337E-2,-4.038906E-3,2.2722244E-2,-7.014523E-2,8.578786E-2,1.5694533E-2,1.240969E-2,3.404069E-3,-1.585563E-2,-1.0207304E-2,2.6535036E-3,9.694643E-3,-7.084489E-4,4.1167857E-3,-1.46930115E-2,-4.0653307E-2,1.083635E-2,-3.6120773E-3,9.97177E-3,8.130806E-2,-1.0328687E-2,7.950342E-3,1.0330558E-2,-6.510477E-3,2.6546398E-3,-1.3517612E-3,9.262963E-3,6.68931E-4],"categories":[],"categories_nodes":[],"categories_segments":[],"categories_sizes":[],"default_left":[0,0,0,0,0,0,0,0,0,0,0,0,0,0,0,0,0,0,0,0,0,0,0,0,0,0,0,0,0,0,0,0,0,0,0,0,0,0,0,0,0,0,0,0,0,0,0],"id":5,"left_children":[1,3,5,7,9,11,13,-1,15,-1,17,19,21,23,25,-1,-1,27,-1,29,-1,31,33,35,37,-1,-1,39,-1,-1,-1,-1,-1,-1,41,-1,-1,43,45,-1,-1,-1,-1,-1,-1,-1,-1],"loss_changes":[4.972979E-1,3.6937684E-2,1.02031976E-1,1.2711972E-2,7.3822334E-2,8.714539E-2,6.889352E-2,0E0,1.512087E-2,0E0,6.236553E-3,2.1629045E-2,1.9214578E-2,3.559698E-2,6.7966282E-3,0E0,0E0,6.9780126E-3,0E0,1.9606203E-4,0E0,1.9410634E-3,4.611107E-2,2.5931481E-2,3.2607876E-2,0E0,0E0,3.3223737E-2,0E0,0E0,0E0,0E0,0E0,0E0,7.008577E-2,0E0,0E0,3.2673042E-2,5.2939765E-3,0E0,0E0,0E0,0E0,0E0,0E0,0E0,0E0],"parents":[2147483647,0,0,1,1,2,2,3,3,4,4,5,5,6,6,8,8,10,10,11,11,12,12,13,13,14,14,17,17,19,19,21,21,22,22,23,23,24,24,27,27,34,34,37,37,38,38],"right_children":[2,4,6,8,10,12,14,-1,16,-1,18,20,22,24,26,-1,-1,28,-1,30,-1,32,34,36,38,-1,-1,40,-1,-1,-1,-1,-1,-1,42,-1,-1,44,46,-1,-1,-1,-1,-1,-1,-1,-1],"split_conditions":[5.359713E2,5.357731E2,5.368469E2,3.516972E0,5.358257E2,3.503053E0,3.651526E0,-2.0033542E-2,5.35118E2,6.3669765E-3,3.512332E0,5.365221E2,5.360452E2,5.369873E2,3.684005E0,-1.1488438E-2,1.9783974E-3,5.358425E2,-1.6748691E-2,5.359916E2,-4.038906E-3,5.36036E2,5.363391E2,3.549451E0,5.3897E2,1.240969E-2,3.404069E-3,5.358292E2,-1.0207304E-2,2.6535036E-3,9.694643E-3,-7.084489E-4,4.1167857E-3,-1.46930115E-2,5.364474E2,1.083635E-2,-3.6120773E-3,3.530891E0,5.398557E2,-1.0328687E-2,7.950342E-3,1.0330558E-2,-6.510477E-3,2.6546398E-3,-1.3517612E-3,9.262963E-3,6.68931E-4],"split_indices":[0,0,0,1,0,1,1,0,0,0,1,0,0,0,1,0,0,0,0,0,0,0,0,1,0,0,0,0,0,0,0,0,0,0,0,0,0,1,0,0,0,0,0,0,0,0,0],"split_type":[0,0,0,0,0,0,0,0,0,0,0,0,0,0,0,0,0,0,0,0,0,0,0,0,0,0,0,0,0,0,0,0,0,0,0,0,0,0,0,0,0,0,0,0,0,0,0],"sum_hessian":[1.55E2,2.1E1,1.34E2,1.2E1,9E0,3E1,1.04E2,1E1,2E0,2E0,7E0,6E0,2.4E1,9.5E1,9E0,1E0,1E0,4E0,3E0,5E0,1E0,2E0,2.2E1,7E0,8.8E1,7E0,2E0,2E0,2E0,1E0,4E0,1E0,1E0,5E0,1.7E1,6E0,1E0,8.2E1,6E0,1E0,1E0,2E0,1.5E1,4.8E1,3.4E1,5E0,1E0],"tree_param":{"num_deleted":"0","num_feature":"3","num_nodes":"47","size_leaf_vector":"1"}},{"base_weights":[-8.1555545E-4,-6.998252E-3,1.0369393E-2,1.3245473E-2,-3.8259387E-2,8.8482745E-2,-5.991243E-3,-1.6276672E-1,1.0715252E-2,4.7601312E-2,1.0836347E-1,-1.4945381E-2,9.9472245E-3,-2.1085477E-2,4.6233058E-2,-5.568245E-2,2.478191E-2,6.8099694E-3,1.0078013E-2,4.436308E-3,1.247677E-2,3.8100008E-3,-6.933926E-2,6.07992E-3,1.267314E-4,-1.4188206E-1,2.441373E-2,-1.552577E-2,4.9992055E-2,-5.315685E-3,4.8875255E-3,1.3573378E-3,-1.0564458E-3,-8.134707E-3,-4.8292903E-3,-2.4049997E-3,-1.7314276E-2,6.835779E-4,3.385377E-3,-3.5203975E-3,-2.1662713E-4,6.89985E-3,5.7301525E-4],"categories":[],"categories_nodes":[],"categories_segments":[],"categories_sizes":[],"default_left":[0,0,0,0,0,0,0,0,0,0,0,0,0,0,0,0,0,0,0,0,0,0,0,0,0,0,0,0,0,0,0,0,0,0,0,0,0,0,0,0,0,0,0],"id":6,"left_children":[1,3,-1,5,7,9,11,13,15,17,19,21,-1,-1,23,25,27,-1,29,-1,-1,31,33,-1,-1,35,37,39,41,-1,-1,-1,-1,-1,-1,-1,-1,-1,-1,-1,-1,-1,-1],"loss_changes":[1.0410974E-1,9.669872E-2,0E0,1.3513067E-1,3.676062E-1,1.0284066E-2,7.231175E-2,1.8060505E-1,4.247564E-2,5.4670237E-3,7.0634335E-3,7.167664E-2,0E0,0E0,2.542859E-3,5.8697943E-2,3.8374178E-2,0E0,1.2411408E-2,0E0,0E0,7.581589E-3,6.2048435E-4,0E0,0E0,1.0569967E-2,5.98266E-4,3.8671026E-3,1.895364E-2,0E0,0E0,0E0,0E0,0E0,0E0,0E0,0E0,0E0,0E0,0E0,0E0,0E0,0E0],"parents":[2147483647,0,0,1,1,3,3,4,4,5,5,6,6,7,7,8,8,9,9,10,10,11,11,14,14,15,15,16,16,18,18,21,21,22,22,25,25,26,26,27,27,28,28],"right_children":[2,4,-1,6,8,10,12,14,16,18,20,22,-1,-1,24,26,28,-1,30,-1,-1,32,34,-1,-1,36,38,40,42,-1,-1,-1,-1,-1,-1,-1,-1,-1,-1,-1,-1,-1,-1],"split_conditions":[3.651526E0,1.995092E1,1.0369393E-2,3.507692E0,2.006129E1,3.493773E0,1.986813E1,3.530891E0,2.008889E1,3.489133E0,1.970256E1,3.540171E0,9.9472245E-3,-2.1085477E-2,3.646887E0,3.530891E0,3.405617E0,6.8099694E-3,1.975775E1,4.436308E-3,1.247677E-2,1.975775E1,1.973016E1,6.07992E-3,1.267314E-4,3.387058E0,3.646887E0,3.373138E0,3.605128E0,-5.315685E-3,4.8875255E-3,1.3573378E-3,-1.0564458E-3,-8.134707E-3,-4.8292903E-3,-2.4049997E-3,-1.7314276E-2,6.835779E-4,3.385377E-3,-3.5203975E-3,-2.1662713E-4,6.89985E-3,5.7301525E-4],"split_indices":[1,2,0,1,2,1,2,1,2,1,2,1,0,0,1,1,1,0,2,0,0,2,2,0,0,1,1,1,1,0,0,0,0,0,0,0,0,0,0,0,0,0,0],"split_type":[0,0,0,0,0,0,0,0,0,0,0,0,0,0,0,0,0,0,0,0,0,0,0,0,0,0,0,0,0,0,0,0,0,0,0,0,0,0,0,0,0,0,0],"sum_hessian":[1.59E2,1.51E2,8E0,9.2E1,5.9E1,1.8E1,7.4E1,1.6E1,4.3E1,7E0,1.1E1,6.9E1,5E0,1.3E1,3E0,7E0,3.6E1,4E0,3E0,3E0,8E0,5.2E1,1.7E1,2E0,1E0,3E0,4E0,1.4E1,2.2E1,1E0,2E0,3.1E1,2.1E1,9E0,8E0,1E0,2E0,2E0,2E0,5E0,9E0,1.5E1,7E0],"tree_param":{"num_deleted":"0","num_feature":"3","num_nodes":"43","size_leaf_vector":"1"}},{"base_weights":[-6.7570887E-4,-8.788511E-3,1.0116451E-1,1.3402595E-2,-4.46309E-2,1.1952925E-2,3.914392E-3,8.274473E-2,-4.880898E-3,-1.655249E-1,1.2121229E-2,3.2360155E-2,9.963417E-2,-1.9372523E-2,5.3434234E-2,-1.760207E-2,1.20389464E-4,-2.2440195E-2,3.413428E-2,5.725972E-3,5.5954456E-3,4.1035893E-3,1.1311007E-2,1.858062E-2,-4.097373E-2,1.0068178E-2,6.977384E-2,-3.654602E-2,-5.529344E-3,-2.8084684E-2,4.871115E-2,-5.0498964E-3,4.1126567E-3,4.2703277E-3,-3.576517E-3,3.843081E-3,-4.4340454E-3,1.7907321E-3,-1.0644197E-3,2.0585218E-3,7.949784E-3,-4.4560195E-3,-8.3356694E-4,-1.7546586E-4,-1.5976072E-3,-1.0310084E-2,1.6444564E-3,6.262762E-3,8.1208546E-4],"categories":[],"categories_nodes":[],"categories_segments":[],"categories_sizes":[],"default_left":[0,0,0,0,0,0,0,0,0,0,0,0,0,0,0,0,0,0,0,0,0,0,0,0,0,0,0,0,0,0,0,0,0,0,0,0,0,0,0,0,0,0,0,0,0,0,0,0,0],"id":7,"left_children":[1,3,5,7,9,-1,-1,11,13,15,17,19,21,23,25,-1,-1,27,29,-1,31,-1,-1,33,35,37,39,41,43,45,47,-1,-1,-1,-1,-1,-1,-1,-1,-1,-1,-1,-1,-1,-1,-1,-1,-1,-1],"loss_changes":[1.2316811E-1,1.10360935E-1,7.850066E-3,1.09436095E-1,3.6563888E-1,0E0,0E0,1.2093224E-2,5.9345745E-2,2.996108E-2,2.8915668E-2,3.678184E-3,5.624056E-3,4.6672E-2,9.217683E-3,0E0,0E0,3.3760476E-3,2.2228066E-2,0E0,1.0049238E-2,0E0,0E0,2.9057557E-2,1.1328038E-2,1.0024456E-3,3.1466223E-3,1.4372226E-3,2.8743234E-4,1.8397512E-2,1.02240145E-2,0E0,0E0,0E0,0E0,0E0,0E0,0E0,0E0,0E0,0E0,0E0,0E0,0E0,0E0,0E0,0E0,0E0,0E0],"parents":[2147483647,0,0,1,1,2,2,3,3,4,4,7,7,8,8,9,9,10,10,11,11,12,12,13,13,14,14,17,17,18,18,20,20,23,23,24,24,25,25,26,26,27,27,28,28,29,29,30,30],"right_children":[2,4,6,8,10,-1,-1,12,14,16,18,20,22,24,26,-1,-1,28,30,-1,32,-1,-1,34,36,38,40,42,44,46,48,-1,-1,-1,-1,-1,-1,-1,-1,-1,-1,-1,-1,-1,-1,-1,-1,-1,-1],"split_conditions":[3.651526E0,1.995092E1,3.684005E0,3.507692E0,2.006129E1,1.1952925E-2,3.914392E-3,3.493773E0,1.978535E1,3.530891E0,3.405617E0,3.489133E0,1.970256E1,3.521612E0,3.521612E0,-1.760207E-2,1.20389464E-4,2.019927E1,2.008889E1,5.725972E-3,1.975775E1,4.1035893E-3,1.1311007E-2,1.975775E1,1.961978E1,3.512332E0,1.981294E1,3.396337E0,3.400977E0,3.530891E0,3.605128E0,-5.0498964E-3,4.1126567E-3,4.2703277E-3,-3.576517E-3,3.843081E-3,-4.4340454E-3,1.7907321E-3,-1.0644197E-3,2.0585218E-3,7.949784E-3,-4.4560195E-3,-8.3356694E-4,-1.7546586E-4,-1.5976072E-3,-1.0310084E-2,1.6444564E-3,6.262762E-3,8.1208546E-4],"split_indices":[1,2,1,1,2,0,0,1,2,1,1,1,2,1,1,0,0,2,2,0,2,0,0,2,2,1,2,1,1,1,1,0,0,0,0,0,0,0,0,0,0,0,0,0,0,0,0,0,0],"split_type":[0,0,0,0,0,0,0,0,0,0,0,0,0,0,0,0,0,0,0,0,0,0,0,0,0,0,0,0,0,0,0,0,0,0,0,0,0,0,0,0,0,0,0,0,0,0,0,0,0],"sum_hessian":[1.47E2,1.37E2,1E1,8.5E1,5.2E1,7E0,3E0,1.7E1,6.8E1,1.6E1,3.6E1,5E0,1.2E1,5.5E1,1.3E1,1.5E1,1E0,1.4E1,2.2E1,2E0,3E0,3E0,9E0,2E1,3.5E1,4E0,9E0,7E0,7E0,4E0,1.8E1,1E0,2E0,1.4E1,6E0,1E0,3.4E1,3E0,1E0,2E0,7E0,5E0,2E0,6E0,1E0,1E0,3E0,1.3E1,5E0],"tree_param":{"num_deleted":"0","num_feature":"3","num_nodes":"49","size_leaf_vector":"1"}},{"base_weights":[-7.171906E-3,-1.4808702E-1,7.869928E-3,-1.816268E-2,-8.3809175E-2,-2.2982655E-2,2.0316325E-2,-1.2133566E-2,-2.5330395E-2,-4.411235E-3,-8.852424E-3,1.492983E-2,8.10681E-2,1.5980959E-3,-4.442783E-2,5.8232956E-2,-2.0488942E-2,1.0838159E-2,1.1720209E-2,8.680078E-3,2.0469667E-3,-6.2353434E-3,-4.2883158E-4,6.982084E-3,1.9508839E-3,-4.7429293E-2,1.7138937E-2,7.6901857E-3,8.030458E-3,2.1607399E-3,-8.077392E-3,4.6213954E-3,-3.2808878E-3,1.8877868E-3,-1.8284869E-3],"categories":[],"categories_nodes":[],"categories_segments":[],"categories_sizes":[],"default_left":[0,0,0,0,0,0,0,0,0,0,0,0,0,0,0,0,0,0,0,0,0,0,0,0,0,0,0,0,0,0,0,0,0,0,0],"id":8,"left_children":[1,3,5,-1,7,9,11,-1,13,15,-1,17,19,-1,21,23,25,-1,27,-1,-1,-1,-1,-1,-1,29,31,33,-1,-1,-1,-1,-1,-1,-1],"loss_changes":[3.2970682E-1,1.711598E-2,5.4611415E-2,0E0,1.2288041E-2,4.9514707E-2,3.1840812E-2,0E0,3.865763E-3,3.4429904E-2,0E0,2.692455E-2,1.0023527E-3,0E0,1.8911832E-3,1.77899E-3,2.8183013E-2,0E0,2.4810927E-2,0E0,0E0,0E0,0E0,0E0,0E0,3.8577355E-2,1.894303E-2,2.5918035E-2,0E0,0E0,0E0,0E0,0E0,0E0,0E0],"parents":[2147483647,0,0,1,1,2,2,4,4,5,5,6,6,8,8,9,9,11,11,12,12,14,14,15,15,16,16,18,18,25,25,26,26,27,27],"right_children":[2,4,6,-1,8,10,12,-1,14,16,-1,18,20,-1,22,24,26,-1,28,-1,-1,-1,-1,-1,-1,30,32,34,-1,-1,-1,-1,-1,-1,-1],"split_conditions":[5.357731E2,3.507692E0,5.368992E2,-1.816268E-2,5.35118E2,5.367811E2,3.651526E0,-1.2133566E-2,5.352153E2,3.503053E0,-8.852424E-3,5.369545E2,5.390312E2,1.5980959E-3,5.35481E2,3.498413E0,5.363485E2,1.0838159E-2,5.3897E2,8.680078E-3,2.0469667E-3,-6.2353434E-3,-4.2883158E-4,6.982084E-3,1.9508839E-3,5.358425E2,5.366762E2,3.540171E0,8.030458E-3,2.1607399E-3,-8.077392E-3,4.6213954E-3,-3.2808878E-3,1.8877868E-3,-1.8284869E-3],"split_indices":[0,1,0,0,0,0,1,0,0,1,0,0,0,0,0,1,0,0,0,0,0,0,0,0,0,0,0,1,0,0,0,0,0,0,0],"split_type":[0,0,0,0,0,0,0,0,0,0,0,0,0,0,0,0,0,0,0,0,0,0,0,0,0,0,0,0,0,0,0,0,0,0,0],"sum_hessian":[1.54E2,1.4E1,1.4E2,8E0,6E0,4E1,1E2,3E0,3E0,3.2E1,8E0,9.3E1,7E0,1E0,2E0,6E0,2.6E1,2E0,9.1E1,6E0,1E0,1E0,1E0,4E0,2E0,1.5E1,1.1E1,8.7E1,4E0,5E0,1E1,7E0,4E0,6.1E1,2.6E1],"tree_param":{"num_deleted":"0","num_feature":"3","num_nodes":"35","size_leaf_vector":"1"}},{"base_weights":[-1.5825779E-3,-1.0241591E-1,1.2413159E-2,3.9833147E-2,-1.5606438E-2,-3.922026E-2,2.372663E-2,1.7940402E-3,7.727424E-3,9.147948E-3,-7.207559E-2,4.604971E-3,4.054068E-2,1.5181899E-3,-7.7292125E-4,-7.751862E-3,5.679806E-3,-9.904373E-2,-3.6098003E-2,1.6816963E-2,-2.8267335E-2,3.396574E-2,6.674125E-2,3.9430916E-2,-3.791507E-2,-5.317706E-2,-1.1592831E-2,-9.919214E-3,-1.2914249E-2,-7.1706395E-3,3.676912E-2,-5.1257065E-3,-7.2456202E-3,9.3961E-3,2.9508417E-2,8.2331095E-3,1.8876255E-2,-1.1532307E-4,5.3343377E-3,-7.331475E-3,-1.8865467E-4,-7.256258E-3,-2.2527694E-3,1.1638118E-3,-4.953011E-3,2.6100755E-3,-5.61814E-3,9.502781E-3,2.9469763E-3,1.8057764E-3,-2.2906938E-3,-2.6710152E-3,3.127286E-3,2.5285163E-3,-1.7523766E-5],"categories":[],"categories_nodes":[],"categories_segments":[],"categories_sizes":[],"default_left":[0,0,0,0,0,0,0,0,0,0,0,0,0,0,0,0,0,0,0,0,0,0,0,0,0,0,0,0,0,0,0,0,0,0,0,0,0,0,0,0,0,0,0,0,0,0,0,0,0,0,0,0,0,0,0],"id":9,"left_children":[1,3,5,7,-1,9,11,13,-1,15,17,19,21,-1,-1,23,-1,25,27,29,31,33,35,37,39,41,-1,-1,43,45,47,-1,49,-1,51,-1,53,-1,-1,-1,-1,-1,-1,-1,-1,-1,-1,-1,-1,-1,-1,-1,-1,-1,-1],"loss_changes":[2.2001301E-1,1.5121396E-1,8.095954E-2,8.406723E-3,0E0,4.0388186E-2,3.6144227E-2,6.27328E-4,0E0,9.298348E-3,1.0978438E-2,2.215293E-2,8.069113E-3,0E0,0E0,1.4303681E-2,0E0,3.07858E-5,1.04210805E-2,1.9407833E-2,6.8778656E-3,1.0598268E-2,6.6541806E-3,2.3200186E-3,7.5140763E-3,7.419465E-4,0E0,0E0,6.869479E-3,3.2448847E-2,6.555075E-3,0E0,3.9802077E-3,0E0,5.5966303E-3,0E0,4.928282E-4,0E0,0E0,0E0,0E0,0E0,0E0,0E0,0E0,0E0,0E0,0E0,0E0,0E0,0E0,0E0,0E0,0E0,0E0],"parents":[2147483647,0,0,1,1,2,2,3,3,5,5,6,6,7,7,9,9,10,10,11,11,12,12,15,15,17,17,18,18,19,19,20,20,21,21,22,22,23,23,24,24,25,25,28,28,29,29,30,30,32,32,34,34,36,36],"right_children":[2,4,6,8,-1,10,12,14,-1,16,18,20,22,-1,-1,24,-1,26,28,30,32,34,36,38,40,42,-1,-1,44,46,48,-1,50,-1,52,-1,54,-1,-1,-1,-1,-1,-1,-1,-1,-1,-1,-1,-1,-1,-1,-1,-1,-1,-1],"split_conditions":[5.359713E2,1.973016E1,1.973016E1,5.358052E2,-1.5606438E-2,5.3665E2,5.376213E2,5.352153E2,7.727424E-3,5.365496E2,1.970256E1,5.372603E2,5.3897E2,1.5181899E-3,-7.7292125E-4,5.360915E2,5.679806E-3,1.967497E1,5.367913E2,5.368469E2,1.981294E1,5.376417E2,5.395453E2,5.36036E2,5.363391E2,5.368345E2,-1.1592831E-2,-9.919214E-3,5.371818E2,5.366762E2,5.369545E2,-5.1257065E-3,1.989573E1,9.3961E-3,5.37644E2,8.2331095E-3,5.398557E2,-1.1532307E-4,5.3343377E-3,-7.331475E-3,-1.8865467E-4,-7.256258E-3,-2.2527694E-3,1.1638118E-3,-4.953011E-3,2.6100755E-3,-5.61814E-3,9.502781E-3,2.9469763E-3,1.8057764E-3,-2.2906938E-3,-2.6710152E-3,3.127286E-3,2.5285163E-3,-1.7523766E-5],"split_indices":[0,2,2,0,0,0,0,0,0,0,2,0,0,0,0,0,0,2,0,0,2,0,0,0,0,0,0,0,0,0,0,0,2,0,0,0,0,0,0,0,0,0,0,0,0,0,0,0,0,0,0,0,0,0,0],"split_type":[0,0,0,0,0,0,0,0,0,0,0,0,0,0,0,0,0,0,0,0,0,0,0,0,0,0,0,0,0,0,0,0,0,0,0,0,0,0,0,0,0,0,0,0,0,0,0,0,0,0,0,0,0,0,0],"sum_hessian":[1.54E2,1.8E1,1.36E2,5E0,1.3E1,2.4E1,1.12E2,3E0,2E0,1E1,1.4E1,5.3E1,5.9E1,1E0,2E0,8E0,2E0,7E0,7E0,3.9E1,1.4E1,4.9E1,1E1,3E0,5E0,3E0,4E0,1E0,6E0,1.8E1,2.1E1,6E0,8E0,2E0,4.7E1,7E0,3E0,1E0,2E0,2E0,3E0,1E0,2E0,4E0,2E0,1.1E1,7E0,1E0,2E1,3E0,5E0,1E0,4.6E1,2E0,1E0],"tree_param":{"num_deleted":"0","num_feature":"3","num_nodes":"55","size_leaf_vector":"1"}},{"base_weights":[5.316052E-4,-8.221446E-2,1.2429795E-2,-1.0405033E-1,-4.153881E-2,6.819793E-3,7.45065E-2,-1.117861E-2,-4.1002434E-2,2.5260925E-2,-1.0003078E-2,1.598339E-3,4.0670447E-2,9.636788E-3,4.5124393E-2,-7.592642E-3,1.4422775E-3,5.101196E-3,-8.910418E-3,2.3775643E-2,-8.427985E-3,-1.0457992E-3,5.1593337E-2,-2.1844746E-3,5.9926707E-2,-7.205594E-3,5.869031E-3,-2.158551E-2,5.568486E-2,-4.395041E-2,-2.305491E-3,6.8279654E-2,2.845785E-2,6.4639286E-3,1.8181921E-3,-4.742227E-3,-1.3412237E-4,3.4809064E-3,8.786636E-3,-1.5192893E-2,8.923425E-4,6.2274556E-3,-7.0904865E-4,1.0903002E-3,7.491875E-3,4.6584327E-3,-1.7281056E-3],"categories":[],"categories_nodes":[],"categories_segments":[],"categories_sizes":[],"default_left":[0,0,0,0,0,0,0,0,0,0,0,0,0,0,0,0,0,0,0,0,0,0,0,0,0,0,0,0,0,0,0,0,0,0,0,0,0,0,0,0,0,0,0,0,0,0,0],"id":10,"left_children":[1,3,5,7,9,11,13,-1,15,17,-1,19,21,-1,23,-1,-1,-1,25,27,29,-1,31,-1,33,-1,-1,35,37,39,41,43,45,-1,-1,-1,-1,-1,-1,-1,-1,-1,-1,-1,-1,-1,-1],"loss_changes":[1.6445363E-1,1.4329836E-2,5.033644E-2,1.7568916E-3,3.7692107E-2,2.3796197E-2,3.3594593E-3,0E0,6.9020777E-3,4.8542744E-3,0E0,2.6438486E-2,1.0592025E-2,0E0,8.248173E-3,0E0,0E0,0E0,1.7035035E-2,5.4757223E-2,1.7732508E-2,0E0,3.847599E-3,0E0,5.0850213E-6,0E0,0E0,8.305147E-3,1.1721373E-2,6.986659E-2,2.238164E-2,2.2305958E-3,7.437708E-3,0E0,0E0,0E0,0E0,0E0,0E0,0E0,0E0,0E0,0E0,0E0,0E0,0E0,0E0],"parents":[2147483647,0,0,1,1,2,2,3,3,4,4,5,5,6,6,8,8,9,9,11,11,12,12,14,14,18,18,19,19,20,20,22,22,24,24,27,27,28,28,29,29,30,30,31,31,32,32],"right_children":[2,4,6,8,10,12,14,-1,16,18,-1,20,22,-1,24,-1,-1,-1,26,28,30,-1,32,-1,34,-1,-1,36,38,40,42,44,46,-1,-1,-1,-1,-1,-1,-1,-1,-1,-1,-1,-1,-1,-1],"split_conditions":[5.359713E2,5.357731E2,3.651526E0,3.516972E0,5.358425E2,5.386913E2,3.674726E0,-1.117861E-2,5.35118E2,5.358257E2,-1.0003078E-2,3.503053E0,3.349939E0,9.636788E-3,3.679365E0,-7.592642E-3,1.4422775E-3,5.101196E-3,5.358292E2,3.414896E0,5.365766E2,-1.0457992E-3,3.56801E0,-2.1844746E-3,5.387435E2,-7.205594E-3,5.869031E-3,3.396337E0,3.493773E0,3.516972E0,5.366762E2,5.387173E2,5.38806E2,6.4639286E-3,1.8181921E-3,-4.742227E-3,-1.3412237E-4,3.4809064E-3,8.786636E-3,-1.5192893E-2,8.923425E-4,6.2274556E-3,-7.0904865E-4,1.0903002E-3,7.491875E-3,4.6584327E-3,-1.7281056E-3],"split_indices":[0,0,1,1,0,0,1,0,0,0,0,1,1,0,1,0,0,0,0,1,0,0,1,0,0,0,0,1,1,1,0,0,0,0,0,0,0,0,0,0,0,0,0,0,0,0,0],"split_type":[0,0,0,0,0,0,0,0,0,0,0,0,0,0,0,0,0,0,0,0,0,0,0,0,0,0,0,0,0,0,0,0,0,0,0,0,0,0,0,0,0,0,0,0,0,0,0],"sum_hessian":[1.65E2,2E1,1.45E2,1.2E1,8E0,1.34E2,1.1E1,1E1,2E0,4E0,4E0,1.17E2,1.7E1,5E0,6E0,1E0,1E0,2E0,2E0,3.6E1,8.1E1,3E0,1.4E1,1E0,5E0,1E0,1E0,1.5E1,2.1E1,1.1E1,7E1,7E0,7E0,4E0,1E0,6E0,9E0,1.4E1,7E0,3E0,8E0,4E0,6.6E1,1E0,6E0,5E0,2E0],"tree_param":{"num_deleted":"0","num_feature":"3","num_nodes":"47","size_leaf_vector":"1"}},{"base_weights":[-7.8612304E-4,-1.0201584E-1,1.2860336E-2,-1.2858637E-2,-6.5243736E-2,7.843124E-3,7.144165E-2,-3.0383637E-2,-1.0993796E-2,2.7104264E-2,-3.6224055E-3,8.833715E-3,4.2639215E-2,-7.275179E-3,1.9580424E-2,6.444288E-2,1.3083776E-3,-9.612523E-3,5.3736508E-2,-2.075255E-3,5.946808E-3,-5.188147E-3,4.6943068E-3,3.1893287E-2,9.3803145E-2,-3.1174634E-2,1.453741E-2,-5.1465098E-2,-2.4914488E-3,6.1213832E-2,6.976128E-5,1.901865E-4,-9.684086E-4,4.255761E-3,-3.7374974E-3,1.6226436E-3,1.4281655E-2,8.337617E-4,-3.7155866E-3,2.5847687E-3,-4.2820754E-3,-7.7983025E-3,1.443702E-3,1.0454573E-3,-1.6573303E-3,6.5389E-3,1.8081426E-3],"categories":[],"categories_nodes":[],"categories_segments":[],"categories_sizes":[],"default_left":[0,0,0,0,0,0,0,0,0,0,0,0,0,0,0,0,0,0,0,0,0,0,0,0,0,0,0,0,0,0,0,0,0,0,0,0,0,0,0,0,0,0,0,0,0,0,0],"id":11,"left_children":[1,3,5,-1,7,9,11,13,-1,15,17,-1,19,-1,21,23,25,27,29,-1,-1,31,-1,33,35,37,39,41,43,45,-1,-1,-1,-1,-1,-1,-1,-1,-1,-1,-1,-1,-1,-1,-1,-1,-1],"loss_changes":[2.2095889E-1,1.0174558E-2,4.088167E-2,0E0,1.2240134E-2,2.9028114E-2,1.586318E-3,1.6242705E-2,0E0,4.7111638E-2,2.903423E-2,0E0,7.6349834E-3,0E0,2.954482E-3,1.6121604E-2,1.3344763E-2,2.252246E-2,3.1300113E-3,0E0,0E0,1.14046605E-4,0E0,9.71628E-3,3.570558E-2,2.4367794E-3,1.5379021E-2,2.03493E-2,1.220533E-2,7.826649E-5,0E0,0E0,0E0,0E0,0E0,0E0,0E0,0E0,0E0,0E0,0E0,0E0,0E0,0E0,0E0,0E0,0E0],"parents":[2147483647,0,0,1,1,2,2,4,4,5,5,6,6,7,7,9,9,10,10,12,12,14,14,15,15,16,16,17,17,18,18,21,21,23,23,24,24,25,25,26,26,27,27,28,28,29,29],"right_children":[2,4,6,-1,8,10,12,14,-1,16,18,-1,20,-1,22,24,26,28,30,-1,-1,32,-1,34,36,38,40,42,44,46,-1,-1,-1,-1,-1,-1,-1,-1,-1,-1,-1,-1,-1,-1,-1,-1,-1],"split_conditions":[5.359713E2,3.507692E0,3.651526E0,-1.2858637E-2,5.358257E2,3.512332E0,3.674726E0,5.35481E2,-1.0993796E-2,5.371824E2,5.38764E2,8.833715E-3,3.679365E0,-7.275179E-3,5.358052E2,5.368119E2,5.375637E2,3.516972E0,5.398557E2,-2.075255E-3,5.946808E-3,5.355919E2,4.6943068E-3,5.367811E2,3.484493E0,5.37201E2,3.507692E0,5.370426E2,3.540171E0,5.395453E2,6.976128E-5,1.901865E-4,-9.684086E-4,4.255761E-3,-3.7374974E-3,1.6226436E-3,1.4281655E-2,8.337617E-4,-3.7155866E-3,2.5847687E-3,-4.2820754E-3,-7.7983025E-3,1.443702E-3,1.0454573E-3,-1.6573303E-3,6.5389E-3,1.8081426E-3],"split_indices":[0,1,1,0,0,1,1,0,0,0,0,0,1,0,0,0,0,1,0,0,0,0,0,0,1,0,1,0,1,0,0,0,0,0,0,0,0,0,0,0,0,0,0,0,0,0,0],"split_type":[0,0,0,0,0,0,0,0,0,0,0,0,0,0,0,0,0,0,0,0,0,0,0,0,0,0,0,0,0,0,0,0,0,0,0,0,0,0,0,0,0,0,0,0,0,0,0],"sum_hessian":[1.58E2,1.8E1,1.4E2,9E0,9E0,1.3E2,1E1,6E0,3E0,4.8E1,8.2E1,5E0,5E0,3E0,3E0,1.9E1,2.9E1,7.5E1,7E0,1E0,4E0,2E0,1E0,1E1,9E0,8E0,2.1E1,1E1,6.5E1,6E0,1E0,1E0,1E0,9E0,1E0,4E0,5E0,1E0,7E0,1.8E1,3E0,7E0,3E0,3.4E1,3.1E1,5E0,1E0],"tree_param":{"num_deleted":"0","num_feature":"3","num_nodes":"47","size_leaf_vector":"1"}},{"base_weights":[2.7529188E-3,-9.780622E-2,1.11691505E-2,-1.5321344E-2,-6.5862715E-2,-1.5224002E-2,2.0794969E-2,-8.554745E-2,-3.8481653E-2,5.3770896E-3,-4.9036846E-2,-1.8968971E-2,2.84483E-2,-1.9548833E-3,-9.715989E-3,-6.1590117E-3,-1.1529893E-2,-1.2682177E-2,5.878673E-2,-1.1993194E-2,-3.034241E-2,-3.7257493E-2,-5.195876E-3,6.9179155E-2,1.816196E-2,1.733923E-3,-2.6932677E-2,3.4831166E-2,-3.8926788E-2,8.239321E-3,-1.5298526E-4,5.242759E-3,-5.768219E-2,-1.3118268E-3,-4.9117375E-3,1.8648505E-3,-1.5216059E-2,3.9382834E-2,1.0522625E-2,1.1655365E-2,6.675082E-2,-4.220575E-3,1.806736E-4,-2.0747266E-3,5.681519E-3,2.35974E-3,-5.1313937E-3,8.546472E-4,-8.77595E-4,-3.717099E-3,-9.998838E-3,-1.886654E-3,6.9938897E-4,4.762869E-3,-1.2309551E-4,2.619524E-3,1.3384195E-4,8.17977E-3,3.835378E-3],"categories":[],"categories_nodes":[],"categories_segments":[],"categories_sizes":[],"default_left":[0,0,0,0,0,0,0,0,0,0,0,0,0,0,0,0,0,0,0,0,0,0,0,0,0,0,0,0,0,0,0,0,0,0,0,0,0,0,0,0,0,0,0,0,0,0,0,0,0,0,0,0,0,0,0,0,0,0,0],"id":12,"left_children":[1,3,5,-1,7,9,11,13,15,17,19,21,23,-1,-1,-1,25,27,29,-1,31,33,35,37,39,-1,41,43,45,-1,47,-1,49,-1,-1,-1,51,53,-1,55,57,-1,-1,-1,-1,-1,-1,-1,-1,-1,-1,-1,-1,-1,-1,-1,-1,-1,-1],"loss_changes":[1.4242937E-1,1.2917668E-2,3.9695214E-2,0E0,2.0978823E-3,2.9520098E-2,3.523287E-2,1.9326657E-3,3.0267555E-3,2.6788097E-2,1.7566476E-2,4.5923158E-3,3.8964838E-2,0E0,0E0,0E0,2.245651E-3,2.7542219E-2,9.752125E-3,0E0,3.4704927E-2,1.645972E-3,3.1508575E-3,1.6263232E-2,2.3881538E-2,0E0,1.3930723E-3,1.095346E-2,1.2053825E-2,0E0,3.000487E-4,0E0,5.828589E-3,0E0,0E0,0E0,8.6164335E-4,4.077373E-3,0E0,1.0465436E-2,7.083304E-4,0E0,0E0,0E0,0E0,0E0,0E0,0E0,0E0,0E0,0E0,0E0,0E0,0E0,0E0,0E0,0E0,0E0,0E0],"parents":[2147483647,0,0,1,1,2,2,4,4,5,5,6,6,7,7,8,8,9,9,10,10,11,11,12,12,16,16,17,17,18,18,20,20,21,21,22,22,23,23,24,24,26,26,27,27,28,28,30,30,32,32,36,36,37,37,39,39,40,40],"right_children":[2,4,6,-1,8,10,12,14,16,18,20,22,24,-1,-1,-1,26,28,30,-1,32,34,36,38,40,-1,42,44,46,-1,48,-1,50,-1,-1,-1,52,54,-1,56,58,-1,-1,-1,-1,-1,-1,-1,-1,-1,-1,-1,-1,-1,-1,-1,-1,-1,-1],"split_conditions":[5.357731E2,5.349666E2,5.368469E2,-1.5321344E-2,3.507692E0,5.365464E2,3.405617E0,5.350151E2,5.35118E2,5.363485E2,5.365766E2,3.387058E0,3.503053E0,-1.9548833E-3,-9.715989E-3,-6.1590117E-3,5.352153E2,3.507692E0,5.365221E2,-1.1993194E-2,5.366595E2,3.354579E0,5.372603E2,3.484493E0,3.651526E0,1.733923E-3,5.35481E2,5.358292E2,5.358257E2,8.239321E-3,5.365237E2,5.242759E-3,5.368265E2,-1.3118268E-3,-4.9117375E-3,1.8648505E-3,5.38207E2,3.438095E0,1.0522625E-2,5.374252E2,5.383956E2,-4.220575E-3,1.806736E-4,-2.0747266E-3,5.681519E-3,2.35974E-3,-5.1313937E-3,8.546472E-4,-8.77595E-4,-3.717099E-3,-9.998838E-3,-1.886654E-3,6.9938897E-4,4.762869E-3,-1.2309551E-4,2.619524E-3,1.3384195E-4,8.17977E-3,3.835378E-3],"split_indices":[0,0,0,0,1,0,1,0,0,0,0,1,1,0,0,0,0,1,0,0,0,1,0,1,1,0,0,0,0,0,0,0,0,0,0,0,0,1,0,0,0,0,0,0,0,0,0,0,0,0,0,0,0,0,0,0,0,0,0],"split_type":[0,0,0,0,0,0,0,0,0,0,0,0,0,0,0,0,0,0,0,0,0,0,0,0,0,0,0,0,0,0,0,0,0,0,0,0,0,0,0,0,0,0,0,0,0,0,0,0,0,0,0,0,0,0,0,0,0,0,0],"sum_hessian":[1.66E2,1.2E1,1.54E2,3E0,9E0,4.1E1,1.13E2,4E0,5E0,2.6E1,1.5E1,1.8E1,9.5E1,1E0,3E0,2E0,3E0,2E1,6E0,2E0,1.3E1,7E0,1.1E1,1.8E1,7.7E1,1E0,2E0,7E0,1.3E1,4E0,2E0,3E0,1E1,3E0,4E0,3E0,8E0,1.1E1,7E0,6.9E1,8E0,1E0,1E0,2E0,5E0,2E0,1.1E1,1E0,1E0,8E0,2E0,7E0,1E0,9E0,2E0,2.8E1,4.1E1,4E0,4E0],"tree_param":{"num_deleted":"0","num_feature":"3","num_nodes":"59","size_leaf_vector":"1"}},{"base_weights":[9.995832E-4,-8.855691E-2,1.2845298E-2,-1.0675817E-1,-1.9881988E-2,-1.0596864E-2,2.0160165E-2,-1.43041685E-2,-7.79406E-2,3.9925575E-3,-7.306222E-3,4.7025345E-2,-2.0166319E-2,-1.5328805E-2,2.585099E-2,-8.4294066E-2,-1.0379673E-3,1.6719103E-4,5.794573E-3,-7.353665E-2,-3.0463778E-3,-2.1677256E-2,-7.064253E-3,5.919838E-2,1.6691944E-2,-2.6256363E-3,-9.712536E-3,-5.32492E-3,-9.975636E-3,3.7952356E-2,-1.974901E-2,-2.9795791E-3,-6.109774E-3,5.462885E-4,-9.634256E-3,2.9718122E-2,9.601898E-3,9.953363E-3,3.7907742E-2,-4.6384097E-3,3.8396716E-3,-6.765962E-4,4.6533067E-3,-8.812094E-3,1.1964695E-4,1.4941693E-4,-9.142478E-4,-1.4522016E-3,-2.3379327E-4,4.0612835E-3,1.2054603E-3,2.8309708E-3,-6.8991265E-4,5.6460043E-3,2.2655574E-3],"categories":[],"categories_nodes":[],"categories_segments":[],"categories_sizes":[],"default_left":[0,0,0,0,0,0,0,0,0,0,0,0,0,0,0,0,0,0,0,0,0,0,0,0,0,0,0,0,0,0,0,0,0,0,0,0,0,0,0,0,0,0,0,0,0,0,0,0,0,0,0,0,0,0,0],"id":13,"left_children":[1,3,5,7,9,11,13,-1,15,-1,-1,17,19,21,23,25,-1,-1,-1,27,29,31,33,35,37,-1,-1,39,-1,41,43,-1,45,-1,47,49,-1,51,53,-1,-1,-1,-1,-1,-1,-1,-1,-1,-1,-1,-1,-1,-1,-1,-1],"loss_changes":[1.6344921E-1,2.0376906E-2,2.353441E-2,3.4896731E-3,1.8819952E-2,1.9144963E-2,2.1400262E-2,0E0,3.4175217E-3,0E0,0E0,2.379504E-3,2.6273191E-2,6.3387305E-4,2.6500594E-2,4.152134E-3,0E0,0E0,0E0,1.1988245E-2,1.6499616E-2,8.290354E-4,3.1018906E-4,1.7770633E-2,9.916125E-3,0E0,0E0,7.16652E-3,0E0,3.0008461E-3,2.4450842E-2,0E0,1.0590245E-4,0E0,2.1568727E-4,1.8196963E-3,0E0,1.7518919E-2,3.5312306E-3,0E0,0E0,0E0,0E0,0E0,0E0,0E0,0E0,0E0,0E0,0E0,0E0,0E0,0E0,0E0,0E0],"parents":[2147483647,0,0,1,1,2,2,3,3,4,4,5,5,6,6,8,8,11,11,12,12,13,13,14,14,15,15,19,19,20,20,21,21,22,22,23,23,24,24,27,27,29,29,30,30,32,32,34,34,35,35,37,37,38,38],"right_children":[2,4,6,8,10,12,14,-1,16,-1,-1,18,20,22,24,26,-1,-1,-1,28,30,32,34,36,38,-1,-1,40,-1,42,44,-1,46,-1,48,50,-1,52,54,-1,-1,-1,-1,-1,-1,-1,-1,-1,-1,-1,-1,-1,-1,-1,-1],"split_conditions":[5.359713E2,3.516972E0,5.368345E2,5.349666E2,5.358257E2,5.360828E2,3.414896E0,-1.43041685E-2,3.512332E0,3.9925575E-3,-7.306222E-3,5.359916E2,5.363391E2,3.396337E0,3.503053E0,5.350916E2,-1.0379673E-3,1.6719103E-4,5.794573E-3,5.360915E2,5.365237E2,5.382261E2,5.372603E2,3.484493E0,3.632967E0,-2.6256363E-3,-9.712536E-3,5.360868E2,-9.975636E-3,5.363485E2,5.365766E2,-2.9795791E-3,5.383907E2,5.462885E-4,5.374786E2,3.438095E0,9.601898E-3,3.530891E0,5.383491E2,-4.6384097E-3,3.8396716E-3,-6.765962E-4,4.6533067E-3,-8.812094E-3,1.1964695E-4,1.4941693E-4,-9.142478E-4,-1.4522016E-3,-2.3379327E-4,4.0612835E-3,1.2054603E-3,2.8309708E-3,-6.8991265E-4,5.6460043E-3,2.2655574E-3],"split_indices":[0,1,0,0,0,0,1,0,1,0,0,0,0,1,1,0,0,0,0,0,0,0,0,1,1,0,0,0,0,0,0,0,0,0,0,1,0,1,0,0,0,0,0,0,0,0,0,0,0,0,0,0,0,0,0],"split_type":[0,0,0,0,0,0,0,0,0,0,0,0,0,0,0,0,0,0,0,0,0,0,0,0,0,0,0,0,0,0,0,0,0,0,0,0,0,0,0,0,0,0,0,0,0,0,0,0,0,0,0,0,0,0,0],"sum_hessian":[1.52E2,1.7E1,1.35E2,1.3E1,4E0,3.2E1,1.03E2,4E0,9E0,2E0,2E0,4E0,2.8E1,1.4E1,8.9E1,8E0,1E0,1E0,3E0,6E0,2.2E1,7E0,7E0,1.8E1,7.1E1,2E0,6E0,2E0,4E0,6E0,1.6E1,4E0,3E0,1E0,6E0,1.1E1,7E0,5.5E1,1.6E1,1E0,1E0,1E0,5E0,3E0,1.3E1,1E0,2E0,3E0,3E0,6E0,5E0,2.6E1,2.9E1,6E0,1E1],"tree_param":{"num_deleted":"0","num_feature":"3","num_nodes":"55","size_leaf_vector":"1"}},{"base_weights":[-1.3217955E-3,-7.2809726E-2,7.990482E-3,-5.659152E-2,-9.252787E-3,1.3728887E-3,3.7106063E-2,-8.110206E-2,5.214429E-3,-1.8176545E-3,6.2296153E-3,5.3205695E-2,1.8356E-2,-9.426241E-2,-4.645715E-2,2.0397505E-2,-1.1791755E-2,6.0278594E-2,7.178863E-3,-2.3177564E-3,3.1790387E-2,-1.0178878E-2,-2.4552108E-3,-6.135774E-3,6.572604E-4,2.7281498E-3,8.1899226E-2,-5.5787206E-2,-7.4706753E-3,2.534318E-2,7.4578407E-3,1.6886712E-3,-6.118417E-4,9.289503E-3,4.332096E-2,-1.3647333E-3,2.124812E-3,4.0302873E-3,9.879647E-3,2.278956E-3,-9.177582E-3,4.999548E-3,-1.0602985E-3,3.8783909E-3,-1.4209867E-3,3.4352464E-3,-1.8869957E-3,5.6364536E-3,7.141352E-4],"categories":[],"categories_nodes":[],"categories_segments":[],"categories_sizes":[],"default_left":[0,0,0,0,0,0,0,0,0,0,0,0,0,0,0,0,0,0,0,0,0,0,0,0,0,0,0,0,0,0,0,0,0,0,0,0,0,0,0,0,0,0,0,0,0,0,0,0,0],"id":14,"left_children":[1,3,5,7,-1,9,11,13,-1,15,-1,17,19,21,23,25,27,29,31,-1,33,-1,-1,-1,-1,35,37,39,41,43,-1,-1,-1,45,47,-1,-1,-1,-1,-1,-1,-1,-1,-1,-1,-1,-1,-1,-1],"loss_changes":[1.0975912E-1,8.3976984E-4,2.8079618E-2,3.8876254E-2,0E0,2.3438627E-2,7.1738213E-3,6.361753E-4,0E0,2.572179E-2,0E0,4.1248724E-3,8.548515E-3,1.1735298E-3,4.354152E-3,3.889761E-2,1.479186E-2,4.104782E-3,4.905839E-4,0E0,2.451499E-3,0E0,0E0,0E0,0E0,9.084909E-3,1.6411282E-3,2.1886613E-2,1.3850234E-2,3.2092228E-3,0E0,0E0,0E0,4.177026E-3,2.9008612E-3,0E0,0E0,0E0,0E0,0E0,0E0,0E0,0E0,0E0,0E0,0E0,0E0,0E0,0E0],"parents":[2147483647,0,0,1,1,2,2,3,3,5,5,6,6,7,7,9,9,11,11,12,12,13,13,14,14,15,15,16,16,17,17,18,18,20,20,25,25,26,26,27,27,28,28,29,29,33,33,34,34],"right_children":[2,4,6,8,-1,10,12,14,-1,16,-1,18,20,22,24,26,28,30,32,-1,34,-1,-1,-1,-1,36,38,40,42,44,-1,-1,-1,46,48,-1,-1,-1,-1,-1,-1,-1,-1,-1,-1,-1,-1,-1,-1],"split_conditions":[5.359713E2,5.358257E2,3.600489E0,5.357731E2,-9.252787E-3,5.388043E2,5.384655E2,3.507692E0,5.214429E-3,3.503053E0,6.2296153E-3,3.684005E0,5.386741E2,5.357688E2,5.35481E2,3.493773E0,5.363391E2,3.614408E0,5.376417E2,-2.3177564E-3,3.632967E0,-1.0178878E-2,-2.4552108E-3,-6.135774E-3,6.572604E-4,3.414896E0,5.363744E2,5.360452E2,5.36483E2,3.609768E0,7.4578407E-3,1.6886712E-3,-6.118417E-4,5.387474E2,5.392559E2,-1.3647333E-3,2.124812E-3,4.0302873E-3,9.879647E-3,2.278956E-3,-9.177582E-3,4.999548E-3,-1.0602985E-3,3.8783909E-3,-1.4209867E-3,3.4352464E-3,-1.8869957E-3,5.6364536E-3,7.141352E-4],"split_indices":[0,0,1,0,0,0,0,1,0,1,0,1,0,0,0,1,0,1,0,0,1,0,0,0,0,1,0,0,0,1,0,0,0,0,0,0,0,0,0,0,0,0,0,0,0,0,0,0,0],"split_type":[0,0,0,0,0,0,0,0,0,0,0,0,0,0,0,0,0,0,0,0,0,0,0,0,0,0,0,0,0,0,0,0,0,0,0,0,0,0,0,0,0,0,0,0,0,0,0,0,0],"sum_hessian":[1.63E2,1.8E1,1.45E2,1.2E1,6E0,1.19E2,2.6E1,1E1,2E0,1.14E2,5E0,1.3E1,1.3E1,6E0,4E0,3.5E1,7.9E1,1.1E1,2E0,3E0,1E1,5E0,1E0,3E0,1E0,2.8E1,7E0,6E0,7.3E1,4E0,7E0,1E0,1E0,4E0,6E0,1.5E1,1.3E1,3E0,4E0,2E0,4E0,3E0,7E1,3E0,1E0,2E0,2E0,4E0,2E0],"tree_param":{"num_deleted":"0","num_feature":"3","num_nodes":"49","size_leaf_vector":"1"}},{"base_weights":[-1.1228345E-3,-6.872851E-2,8.813123E-3,1.7682036E-2,-9.683694E-3,-2.3074703E-2,1.643421E-2,3.1231165E-2,-2.5031806E-3,1.6757846E-2,-5.8713436E-2,-1.8056188E-2,2.253919E-2,3.3839543E-3,4.866799E-3,5.702799E-3,4.2969766E-3,-9.011916E-2,-2.7763048E-2,1.3161274E-2,-8.268466E-2,4.5512933E-2,1.416275E-2,1.7543792E-3,-1.2467861E-3,3.7902165E-2,-1.8111434E-2,-9.64553E-3,-2.6051165E-3,-9.207189E-3,-8.215457E-3,5.6374993E-2,-3.1932626E-2,-1.1643599E-2,4.3035983E-3,9.302211E-3,3.7677914E-2,8.79011E-3,5.1988468E-2,-3.5355092E-4,4.914546E-3,-4.52195E-3,1.7756938E-4,4.219568E-3,-4.6901274E-3,3.157444E-3,7.891758E-3,-5.362864E-3,4.912174E-3,1.8509785E-3,6.266232E-3,-3.113719E-3,1.2573285E-3,2.2405626E-3,5.723991E-3],"categories":[],"categories_nodes":[],"categories_segments":[],"categories_sizes":[],"default_left":[0,0,0,0,0,0,0,0,0,0,0,0,0,0,0,0,0,0,0,0,0,0,0,0,0,0,0,0,0,0,0,0,0,0,0,0,0,0,0,0,0,0,0,0,0,0,0,0,0,0,0,0,0,0,0],"id":15,"left_children":[1,3,5,7,-1,9,11,13,-1,15,17,19,21,23,-1,25,-1,27,29,31,33,35,37,-1,-1,39,41,-1,-1,-1,43,45,47,-1,-1,-1,49,51,53,-1,-1,-1,-1,-1,-1,-1,-1,-1,-1,-1,-1,-1,-1,-1,-1],"loss_changes":[1.1009724E-1,5.2718416E-2,3.513106E-2,4.2541847E-3,0E0,4.0732194E-2,2.4832297E-2,2.2631437E-3,0E0,3.8117878E-3,1.2078308E-2,3.7403896E-2,1.8406793E-2,8.92111E-4,0E0,9.121297E-3,0E0,3.288351E-4,1.0557334E-2,2.7132977E-2,3.047036E-2,6.173238E-3,1.4581591E-2,0E0,0E0,2.503235E-3,3.8540072E-3,0E0,0E0,0E0,1.75806E-2,1.421703E-3,1.4944229E-2,0E0,0E0,0E0,1.0333832E-2,1.0360926E-2,1.15677714E-4,0E0,0E0,0E0,0E0,0E0,0E0,0E0,0E0,0E0,0E0,0E0,0E0,0E0,0E0,0E0,0E0],"parents":[2147483647,0,0,1,1,2,2,3,3,5,5,6,6,7,7,9,9,10,10,11,11,12,12,13,13,15,15,17,17,18,18,19,19,20,20,21,21,22,22,25,25,26,26,30,30,31,31,32,32,36,36,37,37,38,38],"right_children":[2,4,6,8,-1,10,12,14,-1,16,18,20,22,24,-1,26,-1,28,30,32,34,36,38,-1,-1,40,42,-1,-1,-1,44,46,48,-1,-1,-1,50,52,54,-1,-1,-1,-1,-1,-1,-1,-1,-1,-1,-1,-1,-1,-1,-1,-1],"split_conditions":[5.359385E2,1.973016E1,1.973016E1,5.358257E2,-9.683694E-3,5.367383E2,5.368469E2,5.358052E2,-2.5031806E-3,5.365496E2,1.970256E1,1.989573E1,5.372329E2,5.352153E2,4.866799E-3,5.361788E2,4.2969766E-3,5.375566E2,5.367913E2,5.364474E2,5.365766E2,5.369545E2,5.3897E2,1.7543792E-3,-1.2467861E-3,5.36036E2,5.363391E2,-9.64553E-3,-2.6051165E-3,-9.207189E-3,5.370573E2,5.363744E2,1.978535E1,-1.1643599E-2,4.3035983E-3,9.302211E-3,5.371036E2,5.373722E2,2.008889E1,-3.5355092E-4,4.914546E-3,-4.52195E-3,1.7756938E-4,4.219568E-3,-4.6901274E-3,3.157444E-3,7.891758E-3,-5.362864E-3,4.912174E-3,1.8509785E-3,6.266232E-3,-3.113719E-3,1.2573285E-3,2.2405626E-3,5.723991E-3],"split_indices":[0,2,2,0,0,0,0,0,0,0,2,2,0,0,0,0,0,0,0,0,0,0,0,0,0,0,0,0,0,0,0,0,2,0,0,0,0,0,2,0,0,0,0,0,0,0,0,0,0,0,0,0,0,0,0],"split_type":[0,0,0,0,0,0,0,0,0,0,0,0,0,0,0,0,0,0,0,0,0,0,0,0,0,0,0,0,0,0,0,0,0,0,0,0,0,0,0,0,0,0,0,0,0,0,0,0,0,0,0,0,0,0,0],"sum_hessian":[1.62E2,2E1,1.42E2,5E0,1.5E1,2.7E1,1.15E2,4E0,1E0,1.3E1,1.4E1,1.7E1,9.8E1,2E0,2E0,1E1,3E0,6E0,8E0,1.2E1,5E0,2.5E1,7.3E1,1E0,1E0,4E0,6E0,5E0,1E0,1E0,7E0,6E0,6E0,4E0,1E0,2E0,2.3E1,6.5E1,8E0,1E0,3E0,2E0,4E0,3E0,4E0,4E0,2E0,5E0,1E0,1.4E1,9E0,5E0,6E1,2E0,6E0],"tree_param":{"num_deleted":"0","num_feature":"3","num_nodes":"55","size_leaf_vector":"1"}},{"base_weights":[4.675178E-3,-5.447466E-2,1.3152312E-2,2.2629619E-2,-8.168473E-3,-1.2466504E-2,1.8879827E-2,3.6667634E-2,-2.3780228E-3,1.5155143E-2,-6.632463E-2,-1.113672E-2,2.4623938E-2,1.5689293E-3,4.542343E-3,7.125616E-3,5.2927574E-3,-1.5115659E-2,-7.879639E-2,8.3630085E-3,-6.740856E-2,8.682068E-3,2.2376979E-2,2.0001581E-2,-5.533743E-3,2.0750762E-4,-2.4748563E-3,-1.1194301E-2,-4.3149136E-2,3.9020326E-2,-3.224826E-2,-1.0470278E-2,4.088414E-3,5.6294375E-3,2.9041966E-2,3.5388202E-3,-4.4049535E-5,-2.0481348E-4,-5.2912356E-3,9.181976E-4,5.240917E-3,-9.418989E-3,-6.226341E-4,5.6197643E-3,-4.218725E-5,5.9479056E-3,1.832682E-3],"categories":[],"categories_nodes":[],"categories_segments":[],"categories_sizes":[],"default_left":[0,0,0,0,0,0,0,0,0,0,0,0,0,0,0,0,0,0,0,0,0,0,0,0,0,0,0,0,0,0,0,0,0,0,0,0,0,0,0,0,0,0,0,0,0,0,0],"id":16,"left_children":[1,3,5,7,-1,9,11,13,-1,15,17,19,21,-1,-1,23,-1,25,27,29,31,-1,33,35,-1,-1,-1,-1,37,39,41,-1,-1,43,45,-1,-1,-1,-1,-1,-1,-1,-1,-1,-1,-1,-1],"loss_changes":[7.9941E-2,4.3808736E-2,2.063114E-2,4.780977E-3,0E0,3.968407E-2,1.9929923E-2,2.0574871E-4,0E0,5.0821644E-3,4.5569316E-3,2.1412168E-2,1.1473551E-2,0E0,0E0,1.3975188E-2,0E0,5.481453E-4,3.440857E-3,1.9933825E-2,2.4474135E-2,0E0,1.0328993E-2,4.4190707E-3,0E0,0E0,0E0,0E0,1.8980177E-3,3.1142915E-3,1.069642E-2,0E0,0E0,8.591817E-3,2.0761173E-2,0E0,0E0,0E0,0E0,0E0,0E0,0E0,0E0,0E0,0E0,0E0,0E0],"parents":[2147483647,0,0,1,1,2,2,3,3,5,5,6,6,7,7,9,9,10,10,11,11,12,12,15,15,17,17,18,18,19,19,20,20,22,22,23,23,28,28,29,29,30,30,33,33,34,34],"right_children":[2,4,6,8,-1,10,12,14,-1,16,18,20,22,-1,-1,24,-1,26,28,30,32,-1,34,36,-1,-1,-1,-1,38,40,42,-1,-1,44,46,-1,-1,-1,-1,-1,-1,-1,-1,-1,-1,-1,-1],"split_conditions":[5.359713E2,1.973016E1,1.973016E1,5.358257E2,-8.168473E-3,5.370573E2,5.368119E2,5.355919E2,-2.3780228E-3,5.368992E2,1.967497E1,1.978535E1,5.369545E2,1.5689293E-3,4.542343E-3,5.367972E2,5.2927574E-3,5.372446E2,1.970256E1,5.366595E2,5.365766E2,8.682068E-3,1.978535E1,1.970256E1,-5.533743E-3,2.0750762E-4,-2.4748563E-3,-1.1194301E-2,5.371818E2,5.363485E2,5.366941E2,-1.0470278E-2,4.088414E-3,5.369873E2,1.995092E1,3.5388202E-3,-4.4049535E-5,-2.0481348E-4,-5.2912356E-3,9.181976E-4,5.240917E-3,-9.418989E-3,-6.226341E-4,5.6197643E-3,-4.218725E-5,5.9479056E-3,1.832682E-3],"split_indices":[0,2,2,0,0,0,0,0,0,0,2,2,0,0,0,0,0,0,2,0,0,0,2,2,0,0,0,0,0,0,0,0,0,0,2,0,0,0,0,0,0,0,0,0,0,0,0],"split_type":[0,0,0,0,0,0,0,0,0,0,0,0,0,0,0,0,0,0,0,0,0,0,0,0,0,0,0,0,0,0,0,0,0,0,0,0,0,0,0,0,0,0,0,0,0,0,0],"sum_hessian":[1.57E2,1.9E1,1.38E2,5E0,1.4E1,2.5E1,1.13E2,4E0,1E0,1.7E1,8E0,1.8E1,9.5E1,2E0,2E0,1.5E1,2E0,2E0,6E0,1.4E1,4E0,2E0,9.3E1,1.3E1,2E0,1E0,1E0,2E0,4E0,8E0,6E0,3E0,1E0,2.7E1,6.6E1,7E0,6E0,1E0,3E0,3E0,5E0,1E0,5E0,2E0,2.5E1,1.6E1,5E1],"tree_param":{"num_deleted":"0","num_feature":"3","num_nodes":"47","size_leaf_vector":"1"}},{"base_weights":[-3.8076544E-4,-5.09498E-3,3.7877902E-2,5.4571046E-3,-2.166678E-2,1.1740064E-2,6.271129E-2,5.1509738E-2,-7.592329E-3,-7.6226026E-2,7.618791E-3,2.1346365E-3,-8.005977E-3,6.877181E-3,7.113576E-4,3.5941202E-2,8.184612E-3,-1.1552892E-2,6.1635314E-3,-8.4326334E-2,3.8839937E-3,-1.5899798E-2,2.5445938E-2,-2.3151636E-3,4.7597885E-3,1.3088226E-2,4.605887E-2,-2.229943E-3,-3.7326083E-2,-1.8965483E-3,-8.690386E-3,-3.159098E-2,-6.729225E-3,3.839515E-2,-2.0145774E-3,1.449728E-3,-7.3575974E-4,3.801961E-3,-5.5784346E-3,2.301848E-3,5.264497E-3,6.2937505E-4,-1.4706351E-3,-4.6612406E-3,6.0270666E-3,-1.4125049E-3,-4.4348557E-3,6.238699E-4,-8.475282E-4,1.0665131E-3,4.7509237E-3,-1.342098E-3,2.1469751E-3],"categories":[],"categories_nodes":[],"categories_segments":[],"categories_sizes":[],"default_left":[0,0,0,0,0,0,0,0,0,0,0,0,0,0,0,0,0,0,0,0,0,0,0,0,0,0,0,0,0,0,0,0,0,0,0,0,0,0,0,0,0,0,0,0,0,0,0,0,0,0,0,0,0],"id":17,"left_children":[1,3,5,7,9,11,13,15,17,19,21,-1,23,-1,-1,25,-1,27,-1,29,-1,31,33,-1,35,37,39,41,43,-1,-1,45,47,49,51,-1,-1,-1,-1,-1,-1,-1,-1,-1,-1,-1,-1,-1,-1,-1,-1,-1,-1],"loss_changes":[2.9591596E-2,2.5648825E-2,1.0947406E-2,5.447755E-2,9.165527E-2,2.0677624E-3,2.543345E-3,6.5042153E-3,2.0178875E-2,2.1916643E-2,1.6336821E-2,0E0,8.8358065E-4,0E0,0E0,2.8654523E-3,0E0,1.6255952E-2,0E0,1.5527308E-3,0E0,2.2336682E-3,7.900375E-3,0E0,4.6064396E-4,1.2423429E-2,3.0565448E-4,5.516157E-3,1.9123022E-2,0E0,0E0,7.105116E-4,3.245875E-4,3.2843146E-3,2.4311186E-3,0E0,0E0,0E0,0E0,0E0,0E0,0E0,0E0,0E0,0E0,0E0,0E0,0E0,0E0,0E0,0E0,0E0,0E0],"parents":[2147483647,0,0,1,1,2,2,3,3,4,4,5,5,6,6,7,7,8,8,9,9,10,10,12,12,15,15,17,17,19,19,21,21,22,22,24,24,25,25,26,26,27,27,28,28,31,31,32,32,33,33,34,34],"right_children":[2,4,6,8,10,12,14,16,18,20,22,-1,24,-1,-1,26,-1,28,-1,30,-1,32,34,-1,36,38,40,42,44,-1,-1,46,48,50,52,-1,-1,-1,-1,-1,-1,-1,-1,-1,-1,-1,-1,-1,-1,-1,-1,-1,-1],"split_conditions":[3.632967E0,1.995092E1,2.017167E1,3.507692E0,2.008889E1,3.670086E0,3.684005E0,1.975775E1,1.986813E1,3.530891E0,3.414896E0,2.1346365E-3,3.679365E0,6.877181E-3,7.113576E-4,3.493773E0,8.184612E-3,3.540171E0,6.1635314E-3,3.387058E0,3.8839937E-3,3.373138E0,3.605128E0,-2.3151636E-3,2.014408E1,3.489133E0,1.970256E1,1.975775E1,1.978535E1,-1.8965483E-3,-8.690386E-3,3.354579E0,3.391697E0,3.424176E0,2.022686E1,1.449728E-3,-7.3575974E-4,3.801961E-3,-5.5784346E-3,2.301848E-3,5.264497E-3,6.2937505E-4,-1.4706351E-3,-4.6612406E-3,6.0270666E-3,-1.4125049E-3,-4.4348557E-3,6.238699E-4,-8.475282E-4,1.0665131E-3,4.7509237E-3,-1.342098E-3,2.1469751E-3],"split_indices":[1,2,2,1,2,1,1,2,2,1,1,0,1,0,0,1,0,1,0,1,0,1,1,0,2,1,2,2,2,0,0,1,1,1,2,0,0,0,0,0,0,0,0,0,0,0,0,0,0,0,0,0,0],"split_type":[0,0,0,0,0,0,0,0,0,0,0,0,0,0,0,0,0,0,0,0,0,0,0,0,0,0,0,0,0,0,0,0,0,0,0,0,0,0,0,0,0,0,0,0,0,0,0,0,0,0,0,0,0],"sum_hessian":[1.62E2,1.45E2,1.7E1,8.9E1,5.6E1,9E0,8E0,1.9E1,7E1,1.9E1,3.7E1,6E0,3E0,7E0,1E0,1.4E1,5E0,6.7E1,3E0,1.8E1,1E0,1.6E1,2.1E1,1E0,2E0,5E0,9E0,5E1,1.7E1,1E0,1.7E1,5E0,1.1E1,1.4E1,7E0,1E0,1E0,4E0,1E0,3E0,6E0,3E1,2E1,1.6E1,1E0,3E0,2E0,1E0,1E1,4E0,1E1,5E0,2E0],"tree_param":{"num_deleted":"0","num_feature":"3","num_nodes":"53","size_leaf_vector":"1"}},{"base_weights":[-5.346822E-3,-5.7131607E-2,2.196964E-3,9.916306E-3,-7.451335E-2,-2.524364E-2,7.904595E-3,2.3848355E-2,-2.2905946E-3,-1.0296888E-2,-6.0026012E-2,1.5766079E-2,-5.5662446E-2,-1.9607479E-2,1.3553937E-2,-1.4430404E-3,4.1418076E-3,-1.3727745E-3,-7.056544E-3,3.312809E-2,-1.16939545E-2,-7.46727E-2,-3.2070667E-2,4.175797E-3,-9.1792464E-2,7.543464E-3,1.0043531E-2,1.1020303E-4,-3.161192E-4,-5.442858E-4,4.0463726E-3,1.0409951E-2,-5.005479E-3,-2.9926836E-2,-1.0075039E-2,-8.776093E-3,-1.1577641E-2,4.234057E-2,-3.9281547E-2,-2.4073839E-3,-1.0270366E-2,-3.919045E-3,1.5603319E-2,-3.009069E-3,3.3940393E-3,-5.236137E-3,-4.994869E-4,2.6509762E-3,-4.6770633E-3,4.811519E-3,1.4752945E-3,-5.6105442E-3,3.9242865E-3,2.3838777E-4,-4.0756823E-3,3.8071666E-3,9.373881E-4],"categories":[],"categories_nodes":[],"categories_segments":[],"categories_sizes":[],"default_left":[0,0,0,0,0,0,0,0,0,0,0,0,0,0,0,0,0,0,0,0,0,0,0,0,0,0,0,0,0,0,0,0,0,0,0,0,0,0,0,0,0,0,0,0,0,0,0,0,0,0,0,0,0,0,0,0,0],"id":18,"left_children":[1,3,5,7,9,11,13,15,-1,-1,17,19,21,23,25,-1,-1,27,-1,29,31,33,35,37,39,-1,41,-1,-1,-1,-1,43,-1,45,-1,-1,47,49,51,-1,-1,53,55,-1,-1,-1,-1,-1,-1,-1,-1,-1,-1,-1,-1,-1,-1],"loss_changes":[6.145809E-2,2.4047092E-2,2.1813216E-2,2.8326754E-3,4.151091E-4,3.0816779E-2,1.813965E-2,3.2878676E-3,0E0,0E0,7.939361E-3,5.6317747E-3,3.883995E-3,3.4719218E-2,2.0096106E-2,0E0,0E0,1.6761684E-5,0E0,2.200835E-3,4.760689E-3,5.1529408E-3,8.1140315E-3,2.8199838E-2,1.2219846E-3,0E0,7.2030146E-3,0E0,0E0,0E0,0E0,4.833282E-3,0E0,1.9758102E-3,0E0,0E0,1.0622745E-2,7.239301E-4,1.2770431E-2,0E0,0E0,6.366172E-3,8.880822E-3,0E0,0E0,0E0,0E0,0E0,0E0,0E0,0E0,0E0,0E0,0E0,0E0,0E0,0E0],"parents":[2147483647,0,0,1,1,2,2,3,3,4,4,5,5,6,6,7,7,10,10,11,11,12,12,13,13,14,14,17,17,19,19,20,20,21,21,22,22,23,23,24,24,26,26,31,31,33,33,36,36,37,37,38,38,41,41,42,42],"right_children":[2,4,6,8,10,12,14,16,-1,-1,18,20,22,24,26,-1,-1,28,-1,30,32,34,36,38,40,-1,42,-1,-1,-1,-1,44,-1,46,-1,-1,48,50,52,-1,-1,54,56,-1,-1,-1,-1,-1,-1,-1,-1,-1,-1,-1,-1,-1,-1],"split_conditions":[5.359713E2,1.973016E1,1.973016E1,5.358257E2,5.349467E2,5.366038E2,5.368469E2,5.358052E2,-2.2905946E-3,-1.0296888E-2,5.350916E2,1.970256E1,1.970256E1,1.989573E1,5.369873E2,-1.4430404E-3,4.1418076E-3,5.350151E2,-7.056544E-3,5.36036E2,5.365221E2,1.967497E1,5.367913E2,5.366595E2,5.360868E2,7.543464E-3,1.978535E1,1.1020303E-4,-3.161192E-4,-5.442858E-4,4.0463726E-3,5.361812E2,-5.005479E-3,5.368345E2,-1.0075039E-2,-8.776093E-3,5.370573E2,5.364474E2,1.978535E1,-2.4073839E-3,-1.0270366E-2,5.384693E2,2.006129E1,-3.009069E-3,3.3940393E-3,-5.236137E-3,-4.994869E-4,2.6509762E-3,-4.6770633E-3,4.811519E-3,1.4752945E-3,-5.6105442E-3,3.9242865E-3,2.3838777E-4,-4.0756823E-3,3.8071666E-3,9.373881E-4],"split_indices":[0,2,2,0,0,0,0,0,0,0,0,2,2,2,0,0,0,0,0,0,0,2,0,0,0,0,2,0,0,0,0,0,0,0,0,0,0,0,2,0,0,0,2,0,0,0,0,0,0,0,0,0,0,0,0,0,0],"split_type":[0,0,0,0,0,0,0,0,0,0,0,0,0,0,0,0,0,0,0,0,0,0,0,0,0,0,0,0,0,0,0,0,0,0,0,0,0,0,0,0,0,0,0,0,0,0,0,0,0,0,0,0,0,0,0,0,0],"sum_hessian":[1.56E2,1.9E1,1.37E2,4E0,1.5E1,2.3E1,1.14E2,3E0,1E0,3E0,1.2E1,1E1,1.3E1,1.9E1,9.5E1,1E0,2E0,2E0,1E1,6E0,4E0,6E0,7E0,1.5E1,4E0,4E0,9.1E1,1E0,1E0,1E0,5E0,3E0,1E0,3E0,3E0,1E0,6E0,8E0,7E0,1E0,3E0,2.6E1,6.5E1,1E0,2E0,1E0,2E0,3E0,3E0,6E0,2E0,6E0,1E0,2.3E1,3E0,1.3E1,5.2E1],"tree_param":{"num_deleted":"0","num_feature":"3","num_nodes":"57","size_leaf_vector":"1"}},{"base_weights":[-5.153338E-4,-5.5729426E-3,2.0604873E-2,8.094732E-3,-3.243901E-2,-4.391273E-3,3.6124256E-2,-1.0425044E-3,3.601543E-2,-6.824342E-2,-1.4510569E-3,-2.2764385E-2,4.262474E-3,2.278148E-2,4.995504E-2,2.4114784E-2,-3.0501308E-2,1.1876911E-2,4.809948E-2,-1.8485904E-3,-6.9980733E-3,-1.11927735E-2,3.5857677E-2,1.8433333E-4,-3.1581402E-3,1.0410994E-2,-2.2462846E-3,3.9708256E-3,2.0577908E-3,1.3303638E-3,5.3290436E-3,3.423852E-2,-3.6060333E-3,2.8876185E-3,-3.3653226E-2,5.68496E-3,-2.66913E-3,4.065573E-3,6.0903095E-3,-3.4199517E-2,-5.332572E-4,3.7447215E-4,4.294974E-3,1.38299465E-2,3.5345554E-3,-1.1473417E-2,1.9413471E-2,2.2779359E-3,5.5741817E-3,4.235163E-3,-4.130308E-3,-3.702476E-3,-1.5120149E-3,4.5094095E-4,-2.2870183E-3,4.8360825E-4,8.7702276E-5,-1.0686239E-3,-4.3284595E-3,-6.607533E-4,1.724048E-4,2.6355386E-3,4.1097403E-4,-4.8972765E-4,1.4415026E-3,-5.4031215E-4,-1.4842153E-3,2.4358393E-3,4.761815E-4],"categories":[],"categories_nodes":[],"categories_segments":[],"categories_sizes":[],"default_left":[0,0,0,0,0,0,0,0,0,0,0,0,0,0,0,0,0,0,0,0,0,0,0,0,0,0,0,0,0,0,0,0,0,0,0,0,0,0,0,0,0,0,0,0,0,0,0,0,0,0,0,0,0,0,0,0,0,0,0,0,0,0,0,0,0,0,0,0,0],"id":19,"left_children":[1,3,5,7,9,11,13,15,17,19,21,23,25,27,29,31,33,35,37,-1,-1,39,41,-1,-1,43,-1,-1,45,-1,-1,47,49,-1,51,-1,53,55,-1,57,59,-1,-1,61,63,65,67,-1,-1,-1,-1,-1,-1,-1,-1,-1,-1,-1,-1,-1,-1,-1,-1,-1,-1,-1,-1,-1,-1],"loss_changes":[1.6030673E-2,4.469338E-2,1.140845E-2,2.0702105E-2,4.5390695E-2,2.0049876E-3,2.1836907E-3,4.6683956E-2,5.262548E-3,3.4878403E-4,8.760723E-3,9.260818E-4,1.7127511E-3,3.776927E-3,2.690181E-4,9.665165E-3,6.3992124E-3,5.3851358E-3,7.081708E-3,0E0,0E0,4.6413373E-3,9.778999E-4,0E0,0E0,1.3919896E-4,0E0,0E0,1.6317987E-3,0E0,0E0,4.890481E-3,1.9073933E-2,0E0,1.1897534E-3,0E0,1.1182294E-3,5.5858836E-6,0E0,8.191704E-4,2.0335263E-4,0E0,0E0,5.004355E-4,4.3756358E-4,1.6029226E-6,1.0136375E-4,0E0,0E0,0E0,0E0,0E0,0E0,0E0,0E0,0E0,0E0,0E0,0E0,0E0,0E0,0E0,0E0,0E0,0E0,0E0,0E0,0E0,0E0],"parents":[2147483647,0,0,1,1,2,2,3,3,4,4,5,5,6,6,7,7,8,8,9,9,10,10,11,11,12,12,13,13,14,14,15,15,16,16,17,17,18,18,21,21,22,22,25,25,28,28,31,31,32,32,34,34,36,36,37,37,39,39,40,40,43,43,44,44,45,45,46,46],"right_children":[2,4,6,8,10,12,14,16,18,20,22,24,26,28,30,32,34,36,38,-1,-1,40,42,-1,-1,44,-1,-1,46,-1,-1,48,50,-1,52,-1,54,56,-1,58,60,-1,-1,62,64,66,68,-1,-1,-1,-1,-1,-1,-1,-1,-1,-1,-1,-1,-1,-1,-1,-1,-1,-1,-1,-1,-1,-1],"split_conditions":[3.56337E0,1.997851E1,2.008889E1,1.978535E1,2.008889E1,3.600489E0,3.632967E0,3.526252E0,3.526252E0,3.387058E0,3.424176E0,3.56801E0,3.670086E0,3.605128E0,2.014408E1,1.975775E1,1.961978E1,3.503053E0,1.981294E1,-1.8485904E-3,-6.9980733E-3,3.373138E0,2.014408E1,1.8433333E-4,-3.1581402E-3,3.646887E0,-2.2462846E-3,3.9708256E-3,2.022686E1,1.3303638E-3,5.3290436E-3,3.516972E0,3.512332E0,2.8876185E-3,3.549451E0,5.68496E-3,3.521612E0,3.530891E0,6.0903095E-3,3.354579E0,3.396337E0,3.7447215E-4,4.294974E-3,2.006129E1,3.651526E0,3.609768E0,3.609768E0,2.2779359E-3,5.5741817E-3,4.235163E-3,-4.130308E-3,-3.702476E-3,-1.5120149E-3,4.5094095E-4,-2.2870183E-3,4.8360825E-4,8.7702276E-5,-1.0686239E-3,-4.3284595E-3,-6.607533E-4,1.724048E-4,2.6355386E-3,4.1097403E-4,-4.8972765E-4,1.4415026E-3,-5.4031215E-4,-1.4842153E-3,2.4358393E-3,4.761815E-4],"split_indices":[1,2,2,2,2,1,1,1,1,1,1,1,1,1,2,2,2,1,2,0,0,1,2,0,0,1,0,0,2,0,0,1,1,0,1,0,1,1,0,1,1,0,0,2,1,1,1,0,0,0,0,0,0,0,0,0,0,0,0,0,0,0,0,0,0,0,0,0,0],"split_type":[0,0,0,0,0,0,0,0,0,0,0,0,0,0,0,0,0,0,0,0,0,0,0,0,0,0,0,0,0,0,0,0,0,0,0,0,0,0,0,0,0,0,0,0,0,0,0,0,0,0,0,0,0,0,0,0,0,0,0,0,0,0,0,0,0,0,0,0,0],"sum_hessian":[1.48E2,1.2E2,2.8E1,8E1,4E1,1.1E1,1.7E1,6.1E1,1.9E1,1.8E1,2.2E1,3E0,8E0,1E1,7E0,3.3E1,2.8E1,7E0,1.2E1,1E0,1.7E1,1.8E1,4E0,1E0,2E0,7E0,1E0,5E0,5E0,1E0,6E0,2.4E1,9E0,1E0,2.7E1,1E0,6E0,3E0,9E0,5E0,1.3E1,1E0,3E0,4E0,3E0,3E0,2E0,1.7E1,7E0,4E0,5E0,2.2E1,5E0,5E0,1E0,2E0,1E0,2E0,3E0,3E0,1E1,1E0,3E0,2E0,1E0,2E0,1E0,1E0,1E0],"tree_param":{"num_deleted":"0","num_feature":"3","num_nodes":"69","size_leaf_vector":"1"}}]},"name":"gbtree"},"learner_model_param":{"base_score":"[2.28675E0]","boost_from_average":"1","num_class":"0","num_feature":"3","num_target":"1"},"objective":{"name":"reg:squarederror","reg_loss_param":{"scale_pos_weight":"1"}}},"version":[3,1,3]}